566 128
Jon-Snow 0.025032291 -0.05396805 0.15433013 0.0032687734 -0.008878101 -0.02893328 0.12359857 0.15794322 0.028751137 0.1674025 4.8401074e-05 0.26497337 -0.15356775 0.10199844 -0.14717461 0.012550584 -0.03448781 -0.13276207 -0.20156269 0.11584924 -0.11278891 -0.4299108 -0.029879846 -0.10464655 -0.03971334 -0.108785085 -0.20669712 -0.22306529 0.036600962 0.19306259 0.08772297 0.09627354 0.12159254 0.03535831 -0.020798223 -0.11043712 0.012825135 0.07518606 -0.042653296 -0.06606964 -0.22793604 -0.13509472 0.031226287 -0.15409786 -0.01324565 -0.05370728 0.07544803 0.12906398 0.07245614 -0.019768413 0.21075378 -0.059210423 0.029917857 -0.1601068 0.029698169 -0.06563827 0.0073973695 0.08483968 0.0180664 -0.20842758 0.14656766 0.20058182 0.16933772 -0.12988271 -0.059663646 0.020636288 0.13046706 -0.38219813 -0.19793554 0.33956772 -0.10543616 -0.061933797 0.22676829 -0.1720726 0.03279455 0.1401752 0.012846681 -0.27908668 -0.026989779 -0.06487513 -0.08490049 -0.23827721 -0.13568413 0.016769381 -0.044457007 0.0015144567 -0.08517556 -0.25938362 0.07151977 -0.0638424 -0.005918098 -0.12896073 -0.05176358 0.03648234 0.030443702 -0.09606338 -0.04425281 0.043334067 -0.13982528 0.111289725 0.12930886 0.09185999 0.12078611 -0.20598702 -0.15254939 -0.20368132 0.078825705 0.07160551 -0.22420341 0.05597994 0.15107144 0.0033195245 -0.1340984 -0.037632544 0.12430142 -0.1825903 -0.07895565 -0.007834505 -0.110887714 -0.08863422 -0.036465243 0.23085564 0.11546561 -0.068876535 0.21026452 -0.10587599 -0.067108706 -0.012971369
Tyrion-Lannister 0.0040800506 0.20329024 -0.092553265 0.11944978 -0.15928507 -0.033223204 -0.032858573 0.055842914 0.15981373 -0.003445492 0.0905893 0.13338788 0.02780378 -0.09695628 -0.13036898 0.075582586 -0.11228969 0.07460461 -0.07490708 -0.023128185 0.13362142 -0.37176776 0.042654842 -0.082816556 -0.036654618 -0.21817128 -0.032650307 -0.2227202 -0.16867858 0.08236305 -0.07338038 -0.05990144 0.05095099 0.04254273 0.03517657 0.048519127 0.054899532 0.04338714 -0.19498782 -0.4024228 -0.13122669 -0.32291183 0.085466266 -0.09943446 -0.19942132 -0.20468007 -0.029072132 -0.029943423 -0.00635139 -0.07800249 0.10491949 -0.14921942 0.06382076 -0.013549781 0.14730963 0.0547272 -0.038024537 -0.008114399 0.12268721 -0.07117426 0.15027751 0.10467223 0.20343003 -0.34702387 0.08499015 0.10468158 0.16940507 -0.15838435 0.07616738 0.04598935 -0.18916856 0.033045653 -0.008393898 0.042823885 -0.038866248 0.21183375 -0.13953319 -0.35794434 -0.025874628 -0.14998665 -0.033037834 -0.13295415 -0.13551311 -0.049260855 -0.056927856 0.03706789 -0.32887962 0.06567887 -0.0344823 -0.21246876 -0.0370869 0.15446436 -0.057394665 -0.22500348 0.086236715 -0.14928833 0.011465706 -0.040751126 -0.15108562 0.04955952 0.08848382 -0.12968977 -0.004298727 0.06706422 -0.074934706 -0.08022224 -0.057735085 0.07564436 0.106950864 0.15955974 -0.031988025 0.03678253 0.025904974 -0.17149355 0.020357106 0.0011054971 0.025764862 -0.015420434 0.13697015 0.07174586 -0.19769314 0.14923203 0.15407345 -0.03559279 0.029845873 -0.07241554 -0.14618959 0.15081243
Daenerys-Targaryen -0.18725424 0.25006545 0.2424401 0.21881722 -0.21866757 -0.11843775 0.029568026 0.14148887 0.12334294 0.041738607 0.206624 -0.04746626 -0.19146103 0.09258513 -0.07878914 0.13806994 -0.0017362783 -0.053828232 -0.19372612 -0.00613696 -0.051581796 -0.36793366 0.14126383 0.02282316 -0.090000845 -0.16199 -0.0033150949 -0.25088742 -0.14769238 0.08610436 -0.014137344 -0.15614313 -0.024345513 -0.057283565 0.21756308 0.052660946 0.14766386 -0.20752671 0.08933776 -0.015064893 -0.26199892 -0.29967776 -0.17930579 -0.225236 0.019588517 -0.34194535 -0.0646086 0.079696536 0.19070533 0.057398263 0.099375166 -0.15419222 -0.044595454 -0.021383226 0.20036303 0.04850823 0.02789157 0.3183794 0.23432373 -0.13232306 0.29658708 -0.17229936 0.090917386 -0.30487844 -0.14287604 0.1758642 0.044410896 -0.19821241 -0.32562736 0.08353686 -0.13940592 -0.13998541 0.01267982 0.04583186 0.029926281 -0.01754725 0.11036586 -0.21552323 0.13168532 -0.07996798 0.020899378 -0.27172682 0.17214556 -0.115050584 0.13427563 0.11119447 -0.108125545 -0.046812717 0.16018438 -0.16172536 0.12956992 0.22326282 0.02665175 -0.281037 0.2049143 0.19796471 -0.09732176 0.17651437 -0.26004207 0.027747381 0.033306364 0.0527481 -0.108219266 0.06701144 -0.2845051 0.024681494 0.04522708 0.38910413 -0.09995436 0.08893735 0.45344645 0.049732644 -0.19272973 -0.15535289 -0.038078588 -0.08146676 0.07832558 0.1159431 -0.14343812 0.07217888 -0.0010440251 0.11481419 0.25886467 -0.074920036 0.20335539 -0.19959627 -0.04744632 -0.05531674
Sansa-Stark 0.032735184 -0.0068139127 -0.14121354 -0.10857667 -0.13160041 0.0796457 -0.109574385 0.2388839 -0.18725245 -0.08633243 -0.17275964 0.20882133 0.054275878 0.17600179 -0.2638317 0.03891669 -0.13144599 0.03306975 0.0632732 0.042834725 0.04127935 -0.20754066 -0.09492667 0.014845141 -0.011454545 -0.0472406 0.0064445157 -0.06176869 0.0491943 -0.05936741 -0.10053528 0.026566073 -0.0068294234 0.057916846 0.24472737 -0.13559906 0.27287152 -0.24077973 -0.034576364 -0.08581566 -0.18855312 -0.30718336 -0.04065618 -0.18087852 -0.18990993 -0.055675 0.058214825 0.09933374 -0.03088756 0.22961476 0.095793605 -0.09758151 -0.24441084 -0.2233155 0.2148389 0.17993927 -0.26651105 -0.31459773 0.05941707 0.08675839 -0.01887209 0.086980365 0.099809356 -0.32338598 0.021639047 0.0069592255 0.2815586 -0.24753524 0.10914385 0.21277642 -0.07377323 -0.03574051 -0.09104735 -0.18947704 -0.24133977 0.29680938 -0.032035273 -0.23785299 -0.0045820572 -0.11059241 -0.19056207 -0.17313688 0.0023845842 -0.15357962 -0.06173299 -0.11528924 -0.13300233 -0.048807673 -0.17718272 0.050523955 0.21279074 -0.07955191 0.17406712 0.035199672 0.11970903 0.059255425 -0.00617569 0.025626386 -0.22568154 0.0879737 0.0044789887 -0.036759198 0.030638246 -0.07332002 0.22151381 0.17322592 -0.07733677 0.12401431 -0.24201609 0.14843422 -0.011663557 -0.08779857 0.060887363 -0.36793244 0.06344545 -0.05035033 0.066298515 0.15573017 0.1504897 0.06785951 -0.17597207 -0.07819101 0.14774942 -0.12913379 0.020633394 -0.026843233 0.15010513 -0.03740945
Cersei-Lannister -0.10142186 0.013639296 -0.3294617 0.22041285 -0.11132055 -0.13881813 0.024387883 0.02785313 0.11511022 0.0718441 0.056462444 0.27245083 -0.07463829 0.16959785 0.0199931 -0.077759214 -0.037792645 -0.018755853 0.049259506 0.06705866 -0.007422419 -0.16176741 0.24399081 0.039323837 -0.11028235 -0.11058371 -0.07450091 -0.066753 -0.11929332 0.1666616 -0.06639991 -0.10829674 0.039530795 0.04230723 -0.023084262 -0.013638321 0.13769287 -0.04935151 0.04837398 -0.23858272 -0.10839496 -0.22003725 -0.07818792 -0.038075022 -0.079368286 -0.058288734 0.23475671 0.057991307 -0.23728514 0.24253398 0.05989754 -0.13809109 -0.05542438 -0.020762777 0.0672099 0.3516138 -0.2667277 -0.26858214 0.25204954 -0.1171678 0.0060624448 0.17771776 0.0059123314 -0.32436246 0.25391945 -0.06236323 0.18621315 -0.19639136 0.177569 0.028100621 -0.096337 0.073569976 -0.08976676 -0.051546775 -0.15546943 0.16850002 0.1273982 -0.20050073 -0.055420678 -0.18533286 0.13800819 -0.2504649 -0.08794532 -0.08960837 -0.07782262 0.04077522 -0.21659517 0.017050928 -0.09942871 -0.054446805 0.37771478 -0.13381162 0.035541315 -0.0736533 0.031888854 0.09821862 -0.15498285 0.110580474 -0.23239087 0.20397283 -0.20805755 -0.13079947 0.021736432 -0.055512194 -0.027386827 -0.09639863 -0.17652056 0.14061646 -0.046230584 0.057883758 -0.0074697784 0.10466127 0.12964168 -0.16731575 0.14303418 -0.04515557 -0.13096343 0.09528976 0.109411955 0.09825182 0.046646085 0.092198305 0.09953809 -0.011520163 -0.12202018 -0.059188627 -0.18632329 0.23996502
Jorah-Mormont -0.09803735 0.15898716 -0.009863506 0.052647505 -0.004627781 0.0062598116 0.15072924 0.06873453 0.18246253 0.14122581 0.13918297 0.114390776 -0.13549812 -0.0097479075 -0.18419313 0.080497414 0.15868483 -0.057583395 -0.1624443 0.15816051 0.1563353 -0.43224123 0.050772127 0.0858327 -0.21403971 0.034889765 -0.15578294 -0.08678371 0.06818802 0.006216415 0.025804814 -0.16333966 0.038768113 0.014514594 0.0011962836 -0.03450568 0.110843375 -0.11910328 -0.05026638 -0.043289904 -0.24325645 -0.12637189 -0.17288183 -0.1015987 -0.10472329 -0.15972008 -0.061768226 0.1289117 0.028748373 0.057455793 0.2768538 -0.06305754 0.05230461 -0.060758222 0.15663211 0.031423684 0.008372661 0.3085291 0.17108084 -0.19098875 0.1625601 -0.09446081 0.26005334 -0.054297104 -0.010990781 0.3041566 0.22474958 -0.18445353 -0.27073884 0.3078456 -0.11034123 -0.1319319 0.08567997 -0.09199283 0.04560677 -0.15998329 0.023966914 -0.29565907 0.12872821 -0.023629026 -0.01278935 -0.24175683 0.14572091 -0.012169421 0.028418371 -0.0017337406 -0.10358717 0.022698697 0.12808138 -0.05209237 -0.05416756 0.13870113 -0.091719456 -0.22928843 0.2067515 0.11745932 0.056283694 0.12388505 -0.10670868 -0.079338126 -0.102604054 -0.1009046 -0.116620906 -0.07514521 -0.14356324 -0.014999569 -0.02338199 0.22040442 -0.14412248 0.06617597 0.41529298 -0.13468203 -0.0413459 -0.22162086 0.019541837 -0.057609692 0.050462037 0.10752353 -0.0007940853 -0.019881224 -0.14403799 0.15632282 0.2732394 -0.13560897 0.104564965 -0.23681667 -0.084748246 -0.19985883
Jaime-Lannister -0.062675685 -0.00750504 -0.19018468 0.06965309 -0.06987105 -0.13665622 0.041274764 -0.051510062 0.0738702 0.04805707 0.047436707 0.21902792 -0.12385271 0.16012917 -0.2026403 -0.20565262 -0.07072954 -0.23552063 0.09374373 0.0765156 -0.06236126 -0.3371437 0.17098452 -0.010153545 0.01031395 -0.03350484 -0.035058938 -0.04548572 -0.0068898997 -0.013320622 -0.038964465 -0.135171 -0.14773081 0.08867625 -0.12951438 -0.024359474 0.12595011 0.19516213 0.103686616 -0.13500613 -0.36499158 -0.28140765 -0.24565668 -0.086423926 0.02611593 -0.23243831 0.16237275 0.1875076 -0.18536465 0.033539448 0.11404875 -0.21686105 -0.11401102 0.05018349 -0.0991965 0.1601726 -0.28154352 -0.16178297 0.12145836 -0.037147526 0.060772654 0.08968097 -0.0133096045 -0.19324519 -0.05153978 0.12170867 0.017030425 -0.3474241 -0.08367925 -0.06305075 0.1202326 0.21029402 -0.031417105 -0.086652614 0.109857164 -0.029230744 0.028919827 -0.14786652 -0.030566202 -0.13390873 0.020687584 0.20135666 0.12471625 0.11048289 -0.35137495 -0.06676344 -0.27776498 0.1271072 -0.09064576 -0.15240192 0.29610062 -0.12066461 -0.046420954 -0.23743935 0.07207056 0.066016905 0.0043314276 0.09848363 -0.09658606 0.20200191 -0.2112399 -0.2527132 -0.0007928002 -0.15853848 -0.027701024 -0.12055079 0.028617006 -0.008562996 -0.031035954 0.250965 0.13425647 -0.10213396 0.006049268 -0.1187213 0.20435144 0.008480797 -0.10490021 0.11654512 -0.111138344 -0.14837208 -0.05770762 0.032748394 0.089684315 -0.2049752 0.08406298 -0.089492716 -0.15746778 0.27718836
Davos-Seaworth 0.026788957 0.09623963 -0.059110142 0.071080536 -0.018032452 0.18133923 -0.022229373 0.0028698163 -0.058333088 0.0024341582 -0.1088966 0.13024539 0.060478717 -0.082178175 -0.09046948 0.16094433 -0.067697875 -0.081514925 -0.129569 0.092653975 0.24471733 -0.4203146 0.050256103 -0.017737042 0.011038896 -0.25721306 -0.23055458 -0.22748812 0.1489596 0.02901443 0.12161106 0.22123346 0.20436305 -0.05414378 -0.014895747 -0.018597135 0.08622737 -0.063310266 0.084632844 -0.04128284 -0.2652247 -0.24015869 0.33236685 -0.11553632 0.033358358 -0.06582133 0.13829623 0.23295128 0.03392009 0.12154144 0.22457488 0.038694296 0.03617503 0.03408247 0.10907629 0.021940742 -0.14036222 -0.01551041 -0.15129071 -0.046670202 0.11928135 0.09088264 0.40492103 -0.1675116 -0.18911977 0.047964163 0.19424586 -0.40783828 -0.24140178 0.26628056 -0.029301763 -0.14182739 0.14388743 -0.1588365 -0.030082721 0.053709313 0.12511678 -0.22509138 0.08086447 -0.07231742 0.11051297 0.0033078073 -0.21320498 -0.04354577 -0.17922038 -0.009602404 -0.2290741 -0.07451184 0.12706026 -0.10255678 0.0036134159 0.14061806 0.08335501 0.02836254 0.0793412 -0.09441604 -0.016643517 0.16989185 -0.16924486 -0.029824773 -0.12230242 0.18437257 0.05961751 -0.08339774 -0.058370717 0.11517485 0.062486127 0.2994037 0.0124200275 0.2295619 0.075112455 0.17642371 -0.18510988 -0.03933621 0.18815072 -0.35332718 -0.020966593 0.06244668 -0.021748865 -0.17612734 -0.2346201 0.0135863265 0.14218704 -0.03259552 0.00022735556 -0.16775835 0.018747943 -0.14723174
Bran-Stark 0.40515304 -0.16997279 0.1213771 -0.20828848 -0.10082596 0.07016496 0.171822 0.28048822 0.19264048 0.08267401 -0.15430081 0.19592808 -0.1701416 0.2548751 -0.29342523 -0.24749205 -0.2197906 0.07253847 -0.10354064 0.28120247 -0.011452045 -0.30920005 -0.02483981 0.09609466 -0.113641016 0.092297286 -0.15788268 -0.14692657 0.36540604 -0.15847006 -0.08483952 -0.009447722 0.046092466 -0.18949467 -0.1556237 -0.13403691 0.03540118 0.15839577 0.30502012 -0.16710387 -0.15079333 -0.15453492 -0.25281328 -0.38914528 0.0631569 -0.113932386 0.16977149 0.08629522 -0.10237983 0.2639108 -0.2447855 -0.24537054 0.21078122 -0.06090368 0.25670952 0.0597651 0.0288426 -0.18153016 -0.012124818 -0.036037505 -0.108818844 -0.14643852 0.20035298 -0.16183403 -0.2348012 0.1334766 0.1683113 -0.04574478 -0.12460552 0.022041854 -0.16363034 0.063801326 -0.043554902 -0.2088557 0.1871724 0.30098927 -0.17942621 -0.12505107 0.07529357 -0.18501653 -0.1370861 0.024621023 -0.030001402 -0.24412993 0.17313895 -0.0033284223 0.07857548 -0.276815 -0.08528848 -0.13082182 0.07742156 -0.14223452 0.047881167 -0.3570496 0.2851573 -0.08568132 -0.09336206 0.24876079 -0.2365098 0.02373112 -0.27049243 0.012025665 -0.02532176 0.07995409 -0.035803843 0.19624528 0.08474882 0.023036197 -0.09643047 -0.025065329 0.1989341 -0.27136013 -0.07314543 0.04273971 0.38535094 -0.29011697 -0.08032289 -0.008404784 -0.12983504 0.18499842 -0.21674031 0.3675075 -0.18270932 0.15709552 0.31892648 -0.053867422 -0.010787795 0.22434857
Missandei -0.024952332 0.31388792 -0.04328803 -0.065032974 -0.07116981 -0.11233386 0.07321612 0.014149065 0.01542354 -0.055190027 0.06305654 0.12730223 0.0050441218 0.1313514 -0.04281257 0.042840775 -0.1376932 -0.041494966 -0.2979417 -0.10246637 0.09122721 -0.34117207 0.18664156 -0.040199373 -0.12321782 -0.0005997517 -0.023684734 -0.048731703 -0.10242438 0.06903782 -0.0045069377 -0.061680876 -0.11704504 0.024122616 0.08367951 -0.060189955 -0.0551132 -0.057680752 0.046653498 0.008217701 -0.33265254 -0.25249597 -0.11006749 0.109870434 -0.020956298 -0.16685198 0.08809075 0.2298209 0.13017224 -0.09413339 0.24704242 -0.026347969 -0.032247186 0.025866395 0.01997897 0.14707798 0.041262995 0.0756868 0.10018565 -0.17776318 0.23609976 -0.029722929 0.13418455 -0.25592446 -0.118544556 0.12681577 0.12953354 -0.16771735 -0.17400168 0.07062879 -0.023605825 -0.0998592 0.041344408 0.090630375 0.039448224 -0.15479888 -0.13312091 -0.31519824 0.020128984 -0.11837122 -0.08075606 -0.36029452 0.0023211807 -0.075508736 -0.028281266 0.11834725 -0.2891879 0.08295084 0.06834566 -0.2176034 0.0006861341 0.060954094 -0.13856657 -0.35306662 0.28372344 0.06464466 -0.058502145 0.100956164 -0.205552 0.08285893 0.016545985 0.107055984 -0.015152095 -0.063472636 -0.14621499 -0.04806386 0.04879128 0.31149098 -0.153987 0.04819078 0.16166887 -0.118612185 -0.21894927 -0.17208034 -0.058616642 -0.07107406 0.122408845 0.07849382 -0.08577681 0.0017001599 -0.09692911 0.102978595 0.11715964 -0.26047835 -0.058327753 -0.29723948 -0.029750874 -0.021972587
Lord-Varys -0.074637026 0.14497787 -0.19718714 -0.028797902 -0.14884382 0.06404243 -0.009617508 0.015858041 0.06585534 -0.1209716 -0.07049139 0.20890252 0.09024513 0.023501288 -0.15959166 -0.0019982331 -0.028369056 0.084460825 0.07406426 0.028444724 0.1702769 -0.303324 0.12180918 -0.05150869 0.091314554 -0.019775882 -0.02355241 -0.07794125 -0.033895854 0.1377202 -0.053569958 0.0006917293 0.16833459 -0.03207745 0.058832746 -0.06245463 -0.081093036 -0.002043037 -0.077287614 -0.21413103 -0.09021526 -0.26162586 -0.074888684 -0.0525196 -0.12293283 -0.070644245 0.09201374 0.028392501 -0.03342018 -0.008879979 0.17087297 -0.11092315 -0.041098036 -0.12491149 -0.010943202 0.15021053 -0.045059886 -0.047178768 0.2351165 -0.14185475 0.2799084 -0.038018912 0.2852057 -0.27440137 0.058364842 0.016661657 0.24211662 -0.2939536 0.027762929 0.016110599 -0.12051199 -0.05255577 -0.02972937 -0.0003576518 -0.0865708 0.12910283 -0.10109003 -0.2428687 -0.004968964 -0.1382323 0.06803588 -0.09195412 0.04059032 -0.16748194 -0.019391757 -0.11534991 -0.08370918 0.03942183 -0.005357584 -0.028061803 0.21179976 0.0044818 -0.11962464 -0.2609277 0.07401287 0.08674952 0.098546706 0.12659107 -0.11457113 -0.060063757 -0.1084211 -0.16439761 0.14777306 -0.041382615 -0.11922777 0.08217441 0.0052608238 0.114168175 0.021084769 0.07724108 0.13878493 0.051731627 -0.022393543 -0.2389232 0.17376697 -0.22862655 0.13130806 0.17525165 0.07647355 0.026522994 -0.10768817 0.07782792 0.033198733 -0.10019073 0.007144125 -0.013751896 -0.16348758 0.13648681
Tormund-Giantsbane 0.08791657 -0.06206853 -0.06781902 -0.019895729 0.0578645 -0.13202074 0.31003675 0.17826483 -0.11399484 -0.03215407 0.0077576987 0.32396597 -0.093279995 -0.021740986 -0.14122896 0.15513046 -0.029619029 0.016072523 -0.12398635 -0.029426845 -0.1644435 -0.25196537 -0.018944472 -0.290213 -0.046354283 -0.26998365 -0.025458435 -0.12627295 0.20851742 -0.06486906 0.07447704 0.2607231 0.028030219 0.07494146 -0.08106672 -0.33597517 0.10247475 -0.0854925 -0.0033942198 -0.024305563 -0.38167307 -0.2614977 -0.030488163 -0.24786821 -0.06926456 0.025094233 0.15136473 0.086952984 0.10460991 -0.21658103 0.30392608 -0.010692659 -0.04235985 -0.17605989 0.03354465 -0.10043462 -0.16869318 0.14484103 0.044512473 -0.20707516 0.19163008 0.12781487 0.23242398 -0.09838285 -0.013642538 0.057647824 0.31476545 -0.34594145 0.1225534 0.40873483 -0.105044566 0.20942903 0.26330683 -0.32597807 0.015460631 0.11992677 0.107121 -0.2699937 0.18253386 0.011026399 0.13657402 -0.16105215 -0.22861221 0.092340656 -0.067118995 0.15532786 0.023848718 -0.19514577 0.15582323 0.028840093 -0.067973346 -0.036789186 -0.1680439 0.22481358 0.07123666 -0.114096634 0.06253134 0.026414061 -0.16324271 -0.027740486 0.053686865 0.067158304 0.084044695 -0.16626637 -0.29876986 -0.3057812 -0.019361373 0.1421353 -0.14743067 0.13835777 0.34755203 0.031497724 -0.2770773 0.032403655 0.02712848 -0.32389808 -0.18444481 -0.0075194323 -0.19581236 -0.012033768 -0.11794554 0.2766112 0.14313935 0.011448925 0.20498385 -0.18369399 0.123093426 -0.101649545
Arya-Stark 0.25122958 -0.0023546359 -0.3049468 -0.011414573 -0.012802966 -0.21894532 0.22229834 -0.18632533 0.086137265 0.10272416 -0.11927397 0.054114584 -0.119875886 0.12592012 0.005273874 -0.05975247 -0.024345819 0.007902942 0.29982728 -0.20838755 -0.04402593 -0.10244426 -0.2210288 0.17853363 -0.15006693 -0.073760875 -0.12248946 -0.09475229 -0.27971458 -0.27579972 0.082175344 0.18995304 -0.25322217 0.05294488 -0.32047647 0.01513459 0.1427197 -0.13688193 -0.08355182 -0.0274407 -0.09316516 -0.2008132 -0.15743369 -0.20176269 0.25066724 0.04954488 0.3063884 0.21041086 0.16877921 0.30571452 -0.05645196 0.019583583 0.03861741 -0.08505073 0.28389093 0.087627925 -0.07343459 -0.14536338 0.3595941 -0.017297873 -0.056677353 0.39660048 0.3106084 -0.13899381 0.22249 0.35087138 0.1423523 -0.29611704 0.026620261 0.55414665 -0.51226765 -0.21617396 -0.19917603 -0.000103738996 0.07189944 0.08768589 -0.15065664 -0.042938706 0.14257017 -0.07707259 -0.13920796 0.113021664 -0.2530189 0.19133216 0.10107599 -0.06593823 -0.23658505 0.12086113 -0.09222174 0.23188901 0.036920134 0.20993687 -0.20901972 -0.04770069 -0.120566465 0.14546904 0.01359154 -0.16251966 -0.112908915 -0.08821379 0.1956909 -0.12989895 0.2881979 -0.01744413 0.021426447 0.27473515 0.022106878 0.18111688 0.025180196 0.22003382 -0.03901381 0.09525826 -0.033220306 0.040057387 0.03403662 -0.1942864 -0.29840347 -0.12509535 0.33015513 0.24666119 0.28272766 0.32327008 0.17150125 -0.0877191 0.09678284 -0.09812277 0.18496455 -0.1060686
Sandor-Clegane 0.13458543 -0.13496551 -0.1915483 -0.022020593 0.14657204 -0.0943792 0.030817406 -0.10094242 0.11173026 -0.18340588 -0.079690374 0.18742381 -0.17861174 0.07662426 -0.13960353 -0.0058012716 -0.10326171 -0.05075036 -0.18455148 0.12123017 -0.10077845 -0.1751412 -0.12901643 -0.12804164 -0.18089804 -0.063422896 -0.046087027 -0.16814867 -0.35187742 -0.032159988 0.011728123 -0.15746818 -0.15652512 0.08369117 0.041703075 -0.10042491 0.22385602 -0.12563658 0.059557382 0.015917087 -0.063803524 -0.4607412 -0.23982075 -0.30866268 -0.17276786 0.17598721 0.053654812 0.251279 0.062214203 -0.026201019 0.066987254 0.14155647 -0.19655532 -0.13201351 -0.06397087 0.08232563 -0.068303 0.25301045 0.13249907 0.031018725 0.11000076 0.42650774 0.36498213 -0.116098195 0.2043411 0.14506254 0.16933966 -0.018621514 0.17620042 0.64342755 -0.012041803 -0.02568373 0.05484586 -0.10742012 0.07992335 0.06514632 0.17176214 -0.28526407 0.0002508603 -0.034361694 0.035006907 -0.30635235 -0.14286551 0.05374666 0.042165145 -0.27065742 -0.029522551 -0.07850489 -0.09565832 -0.065981366 -0.035020165 -0.09461091 -0.18939799 -0.09026695 0.09599528 0.11269303 -0.028256627 -0.03170421 -0.12466262 -0.120773464 -0.2052144 -0.18770555 0.03901177 0.12509704 -0.018895421 -0.12311252 -0.22137138 0.006210736 -0.049511835 0.19229677 0.033911183 0.08151079 -0.032617368 -0.14255379 -0.019195603 -0.30288494 -0.20531572 -0.026559297 0.24286266 0.20096149 -0.056577176 0.1509191 -0.015453952 -0.08471785 0.15096174 0.045552142 -0.07664923 -0.5197304
Brienne-of-Tarth -0.14383273 0.048201133 -0.1614103 0.030288402 -0.10313353 -0.22253643 -0.09233866 -0.0016548389 0.027056843 -0.027068883 0.1535685 0.25844848 0.009985293 0.042562723 -0.18288986 0.049033847 -0.10745337 -0.26087135 -0.109004796 -0.08855362 -0.09079366 -0.34389234 0.021877984 -0.26970097 -0.100357845 0.11613365 -0.0048123566 -0.028530316 -0.08104084 -0.023481783 0.14727266 0.04086137 0.048769396 -0.03913292 -0.072823316 -0.19732709 0.08514846 0.24239299 0.03914509 -0.15580429 -0.17860843 -0.29764846 -0.17838882 -0.14264108 0.004510464 -0.06530478 -0.069009714 0.08800867 0.02460305 -0.12849018 0.2685173 -0.09589689 -0.09677039 0.04063581 0.079058535 0.054321222 -0.067389764 -0.0798875 0.1177181 -0.059654113 -0.0060712574 -0.09865247 0.3578154 -0.35890505 -0.0162278 0.1819329 0.09583589 -0.26187554 -0.081383064 0.13354503 0.033440508 -0.02374828 -0.1247125 -0.15169995 -0.024845801 0.20154147 -0.057718635 -0.030180147 0.14057817 -0.06158918 -0.073933065 0.17962457 -0.016706701 0.1591901 -0.22256702 0.15035602 -0.17909178 -0.00026164093 -0.00540651 0.006410714 0.1155611 -0.04469052 -0.10429777 -0.12122162 -0.08475553 -0.12723921 0.0149796605 0.13483068 -0.1580019 -0.0043640938 -0.14500101 0.06616178 0.09620317 0.0425293 -0.07242503 0.08765398 0.112379014 -0.07975907 -0.10688863 0.20135023 -0.02499883 -0.03174105 -0.084048316 -0.1321087 0.09674061 -0.19773151 -0.07512854 0.047865007 -0.0313523 -0.08777733 -0.3736491 0.008216404 0.053154156 -0.16878867 -0.010549387 0.0037319716 -0.098035805 0.210607
Theon-Greyjoy 0.15512761 -0.18649536 -0.1621198 -0.11830695 0.049170434 -0.13487434 -0.11835683 0.1259481 -0.101612836 -0.09597796 -0.12615483 0.29354265 -0.048754938 0.16073425 -0.3101101 -0.013994899 0.18314567 -0.25783953 0.25415376 0.124515325 0.15876192 -0.111043066 0.06259541 -0.07977022 -0.43335214 -0.051416416 -0.082632914 0.02875768 0.040694095 0.14756887 -0.03689765 0.26380885 0.1130953 0.014273375 0.055801254 -0.11785386 0.077728085 0.023176182 -0.18987 0.14292416 -0.14613833 -0.18438743 -0.12797916 -0.2024404 -0.042577602 -0.23255856 0.28704262 0.11080254 -0.049444832 0.19255945 0.10202694 0.0032540974 0.15900847 -0.041932058 0.101342596 0.32173318 -0.16547488 0.12383404 0.12818868 -0.25737944 -0.2613295 -0.143919 0.22914381 -0.35634172 -0.25338992 0.15060472 0.25327256 0.08419594 -0.16024192 0.058465783 -0.01495295 -0.08204821 0.038187075 -0.107168496 -0.18385726 0.15331404 -0.101609424 -0.14773665 0.2717909 -0.029328328 0.044588294 -0.08459759 -0.25369307 -0.17480269 0.030246327 0.0328325 0.10269975 0.098413154 -0.07468649 -0.056669734 -0.33829865 0.20084162 0.1127015 -0.29998708 0.037375003 -0.10562927 0.019701984 0.2213302 -0.06665696 0.039077345 -0.107244805 0.14349788 0.041350864 0.066110805 0.0875668 -0.29419416 -0.029798493 0.09072136 0.0032321415 0.08764792 0.33281407 -0.08203836 -0.12352937 -0.1447814 0.43623447 -0.115892015 0.1709446 0.27105853 -0.2000948 0.20926075 0.045124885 0.28105244 -0.12196974 -0.17305465 -0.18275371 0.008388269 -0.03866459 0.41472998
Joffrey-Baratheon -0.038856223 0.04790521 -0.26091975 0.1923185 -0.119613014 -0.13523522 0.10913539 0.10909428 0.010458768 -0.039210554 -0.17831016 0.09586777 -0.05209493 0.099365264 -0.31432837 -0.09839844 -0.1674838 0.058736935 -0.018508121 -0.04760404 0.011277163 -0.29175282 0.06295609 -0.04909919 -0.116729304 -0.07648619 -0.1061255 -0.21426627 -0.0560599 0.08990386 -0.11305485 -0.14160272 0.10046328 0.11114161 0.08729703 0.02284696 0.14735948 -0.09240006 -0.043955337 -0.2609514 -0.1889619 -0.30011764 -0.15827961 0.16958532 -0.17294176 -0.07622788 0.08902096 0.033874024 -0.13720743 0.16355978 0.08778372 0.043346155 -0.22464876 -0.14409363 0.19390118 0.05490023 -0.21562663 -0.14685744 0.23155351 -0.05982824 -0.19010101 0.32420346 -0.08096372 -0.32903346 0.08171848 0.15395708 0.23518534 -0.07627516 0.25212437 0.12791923 -0.14804861 0.09576614 -0.19690199 -0.04211357 -0.1623487 0.2014639 0.021575363 -0.15079634 -0.19243324 -0.09974975 -0.26395154 -0.14187093 -0.30686527 -0.15626547 -0.13968796 0.028512651 -0.21133564 0.025689492 -0.29866573 -0.08246893 0.122296676 -0.19142532 0.09683394 -0.24043964 0.11340978 0.07616959 -0.15600754 -0.025716491 -0.3237221 0.10734979 -0.1283063 -0.17670515 -0.06649463 0.08439296 -0.056090318 -0.036902834 -0.254833 0.04109629 0.04497747 0.18470018 -0.026317585 0.0068397946 0.079370394 -0.22327568 0.16840488 0.15457548 -0.14957522 0.09817534 0.31500962 -0.046906147 -0.11004157 0.035592828 0.14802055 -0.045759276 0.026489927 -0.032925587 0.105544895 0.019637737
Samwell-Tarly 0.115607515 0.048319634 0.10302299 -0.045154504 0.21629266 -0.10911996 0.37056148 0.20427826 0.07995804 0.0980386 -0.16743208 0.11082999 -0.10753726 -0.27966222 0.053718507 -0.09666948 0.06836974 0.09869734 -0.23102088 0.04180607 -0.021943664 -0.33767095 0.0892493 0.22186412 0.18119305 0.09019081 -0.16874187 -0.318416 0.28792652 0.32046187 0.15967536 0.05033019 0.22283654 -0.038179573 -0.120377064 -0.5044292 0.1316552 0.21939783 -0.15466227 -0.24857515 -0.34991464 -0.21892391 -0.05778247 -0.04833121 0.23660849 -0.2863793 0.1404321 0.24000248 0.15037042 0.015189244 0.087133065 -0.080513425 0.10103378 -0.07726783 -0.09459805 -0.046686742 0.10983145 -0.069755815 -0.019997472 -0.40709862 0.36912256 0.041845556 0.30879387 -0.2533397 -0.07904538 -0.13953279 0.20240785 -0.41490552 -0.06315729 0.37224138 0.07211243 -0.25978252 0.1900313 -0.53458077 -0.07632304 0.14280213 -0.00622228 -0.12018663 0.049050182 0.031663436 -0.14993007 -0.13349919 -0.15039793 -0.2709628 0.23998056 -0.08264996 0.026210008 -0.06677877 0.085759625 -0.21139967 0.18657179 0.22312817 -0.08532934 -0.15103714 -0.05679914 -0.11605409 -0.06199524 0.0009310585 -0.17959295 -0.04364281 0.25217298 0.21415527 -0.10526729 -0.3271875 -0.058029894 -0.10796305 0.02632992 0.10145234 0.07588841 -0.049309295 0.04131799 0.1578034 0.06696198 0.16781023 -0.009203775 -0.2601404 -0.17156188 -0.3521865 -0.15589622 -0.13967393 -0.23591515 0.16696918 0.16522919 -0.078827016 0.06503474 0.15584308 -0.09864951 0.27980453
Margaery-Tyrell -0.089347586 -0.010327969 -0.2167376 0.34471765 -0.035634346 -0.25181168 -0.02251139 -0.067343965 -0.09728743 0.07850703 0.21601194 0.10089333 -0.16103399 0.10099096 -0.076329514 -0.35380343 -0.2980741 -0.076698065 0.06101905 0.031685654 0.008153745 -0.0108025335 0.19050531 -0.10582215 0.120438226 -0.24027734 -0.025122406 -0.20737813 -0.10494334 0.23766488 -0.12755054 -0.12968488 -0.023952955 0.11734913 0.0043608746 -0.09047623 0.260013 -0.018508462 0.099983856 -0.24351896 -0.20941031 -0.30061746 -0.15971161 0.13214178 -0.17531505 -0.062955365 0.027887214 0.09008267 -0.33477125 0.13521469 0.10085742 -0.21582773 -0.1320017 0.08492226 -0.028465053 0.26489258 -0.20911911 -0.3539031 0.3270523 -0.21429092 0.0055272244 0.27728423 -0.029560534 -0.42956233 0.010640281 0.021577585 0.17080882 -0.19492751 0.23398228 0.030328957 -0.14780408 0.054454602 -0.35415253 0.02547347 -0.054160576 0.21360052 0.032750398 -0.28297994 -0.16790323 -0.047738466 0.048863288 0.026000975 -0.13730636 -0.12083218 -0.14218593 0.16269629 -0.14511931 -0.05125742 -0.14164925 0.042171206 0.33693045 -0.099940985 0.0489739 -0.21941243 0.005272078 0.14458501 -0.28463742 0.037558705 -0.2339594 0.25118867 -0.12137444 0.019074267 0.007284334 0.02477327 -0.123675115 0.2548777 -0.25689837 0.4041319 0.08427299 -0.08912504 -0.0954353 0.107441135 -0.0249426 -0.0149449725 -0.10487282 0.23616159 -0.18441945 0.34590864 0.21002781 0.17532964 -0.22735412 0.15020372 0.15741694 -0.04233436 -0.074185096 0.061096754 -0.00479359 0.055793945
Podrick-Payne -0.10236254 0.07958365 -0.22952962 -0.009067063 -0.07510838 -0.22326356 -0.038547754 -0.101916775 -0.18314418 0.1501343 -0.09511912 0.054173578 0.011097673 0.025304815 -0.16706656 -0.00038943565 -0.093417734 -0.061440982 -0.10294843 0.016966458 0.053901542 -0.22388695 0.027714595 0.041543096 -0.2075998 -0.11286178 0.046019085 -0.21911637 -0.042746313 0.018858152 0.06006546 -0.039214503 -0.16426563 0.12045251 0.05993364 0.04402948 0.1674116 0.10547507 0.039886955 -0.00024238456 -0.14269796 -0.3461444 0.0065427674 -0.016590165 -0.17602481 -0.294806 -0.013353426 0.14784326 -0.14061607 -0.039038345 0.21005988 0.010838888 -0.046334006 -0.03887797 0.09770795 -0.1823429 -0.16959113 0.079684995 0.006491582 -0.12938891 0.23159544 -0.044820033 0.17964503 -0.3868707 0.078026436 0.10945851 0.19499616 -0.34163263 -0.08106002 0.045783922 -0.20027451 -0.06262139 -0.03531932 -0.080399714 0.05296759 0.22683913 -0.12337458 -0.12346745 -0.119735904 -0.07011515 -0.16127998 -0.02019663 0.04584801 0.063218094 -0.24166843 0.0065488527 -0.18546264 -0.14572386 -0.03364761 -0.056404483 0.24115555 0.0006940996 0.20782612 -0.25624958 0.066906475 0.1767778 0.08601032 0.0949444 -0.06799913 -0.07704886 -0.21066426 -0.31527996 0.14683554 0.027935967 -0.118717365 0.053697877 0.042512055 0.0672578 0.009943889 0.24525453 0.050734244 0.13330945 0.17599118 -0.2102662 0.13635327 -0.09800952 -0.13137506 0.09610181 0.042806182 -0.041873455 -0.36049128 0.1789914 0.08013792 -0.14396536 -0.0973941 -0.13161589 0.030727673 -0.0055524907
Grey-Worm -0.11275727 0.32629368 0.023146931 -0.017589731 -0.23501842 0.09217561 0.091438815 -0.054313373 0.10376868 -0.19997402 0.0069390126 0.13951884 0.01363753 -0.08472559 -0.15049118 0.08625287 -0.015937796 0.044036087 -0.27431053 -0.06192123 0.010411643 -0.45329493 0.11851367 -0.11606049 -0.05086125 -0.09772757 -0.07424144 -0.0341877 -0.07933959 0.13698806 -0.059612963 -0.0049923346 -0.039518967 0.034124397 -0.08098159 0.0072096414 -0.13300924 -0.1989017 0.1481091 0.026179345 -0.26071128 -0.3312219 -0.071679786 -0.095383756 -0.101194076 -0.18996283 -0.04339619 0.34977812 0.22191878 2.2400312e-05 0.15956238 -0.27497408 0.09251147 0.11270249 0.12461925 0.08643297 0.0024474016 0.022031903 0.23420776 -0.2526502 0.16279005 -0.166748 0.21684603 -0.117756486 -0.08828915 -0.0032288246 0.24551204 -0.013506968 -0.19619155 0.09310068 -0.056388654 -0.2148935 0.119217865 0.08110284 -0.10657772 -0.027856268 -0.1856764 -0.25092304 0.013092458 -0.038827207 -0.0035500163 -0.104401134 -0.04115902 -0.040054042 -0.13987847 -0.026643986 -0.24171092 0.007353614 0.097553976 -0.14468549 -0.046612334 0.24737379 -0.056631356 -0.30010557 0.26558298 -0.03243954 -0.06898924 0.107559204 -0.056558438 0.06453785 -0.072058156 0.117337845 0.0035854408 -0.072806016 -0.29002 -0.06381288 0.09923942 0.42409506 -0.0490124 0.021722963 0.28405765 0.04667565 -0.048532512 -0.09731729 0.062093925 -0.2066326 0.08297377 0.17533098 0.09627027 0.055016603 -0.2717077 0.1451127 0.15766352 -0.1576329 0.047815684 -0.08740156 -0.050761588 -0.044312723
Tywin-Lannister -0.11268171 -0.03776646 -0.46020725 0.19347684 -0.15513921 0.004797637 0.08904012 -0.07425399 0.0636343 0.18586332 0.005055019 0.09517259 -0.071970165 0.122921094 -0.17695852 -0.06008459 -0.086228624 0.07023903 0.019490944 -0.12813996 -0.10989143 -0.20200586 0.2727496 -0.050327245 0.052990388 -0.14095397 0.018668681 -0.22137998 -0.110763334 0.11868816 -0.023915486 -0.05416614 0.21072043 0.022035046 -0.010974388 0.059995666 0.16098244 0.2224005 0.09741796 -0.3611514 -0.093522884 -0.3479392 -0.13589777 0.13513842 -0.19134657 -0.10324803 0.17376871 0.08184498 -0.32759672 0.11355735 0.09529469 -0.33546275 -0.16788185 -0.113773115 -0.008377128 0.265359 -0.18585275 -0.1688955 0.33731207 -0.11840778 0.13150193 0.12463319 0.07284947 -0.11123727 0.28156942 0.1088796 0.37926748 -0.27805376 0.2453906 0.08241043 -0.16982882 -0.03661722 -0.24375832 0.051299192 0.08350766 0.1753063 -0.023602081 0.033480976 -0.005174069 -0.12543711 0.1513399 -0.10638546 -0.069862805 -0.2315121 -0.12845854 0.029808842 -0.071535766 0.1324493 -0.060188003 -0.0097535625 0.20893283 -0.055901833 0.06137547 -0.33180484 0.009203209 0.034929097 -0.15158318 0.18022129 -0.043647133 0.09714632 -0.023473565 0.046197433 0.091854714 0.06756532 -0.07872095 0.04213805 -0.21181138 0.31329855 0.11700633 -0.036980923 -0.049391616 0.021445971 0.26593024 -0.11277379 0.01425624 0.0924043 0.009336224 0.070162766 0.45095387 -0.05341969 -0.17815655 0.114586085 0.031943828 -0.049653005 -0.07031248 0.03299095 -0.024685178 0.22827461
Eddison-Tollett 0.114522204 -0.12165591 0.11055881 -0.13745628 -0.060996905 -0.2719204 0.1539311 0.24742095 -0.21732435 0.23838021 -0.12211915 0.3471137 0.025659103 -0.055013496 -0.011412632 -0.12440193 0.05899095 0.04350098 -0.2863709 0.23559706 -0.21278661 -0.39885476 -0.00687906 -0.053884443 0.036066715 -0.09106172 -0.35253474 -0.098365724 0.1701533 0.20931967 0.21465446 0.106433645 0.02792831 0.1475044 -0.09084233 -0.27057302 0.20146897 0.16405414 -0.13095225 -0.26990184 -0.2848688 -0.08702752 0.27727017 0.028042892 -0.048452113 -0.07823338 0.121958025 0.10347215 0.24025302 0.117685616 0.22818059 0.09734217 0.022424618 -0.21127139 -0.0629213 -0.22207922 0.06552375 0.15508577 -0.14472023 -0.19291103 0.13932818 0.08437341 0.23593357 -0.245844 -0.005709276 -0.070379496 0.0013012396 -0.43972072 -0.08549295 0.50764275 0.17899892 -0.114939004 0.1619207 -0.3156994 0.16307226 0.09173548 -0.085180156 -0.12540454 -0.13970351 -0.011783274 -0.017372504 -0.20962267 -0.41034123 -0.1302289 0.11347233 0.058411237 -0.10410798 -0.24278124 0.14638644 -0.05504399 0.10626936 -0.02264381 -0.014267997 0.032721743 -0.107613854 0.005095439 0.12726364 0.18884814 -0.21511573 0.0035246604 -0.0017944553 0.26141518 0.003467935 -0.25969264 -0.06719039 -0.20560162 -0.009284295 0.19260307 -0.16618006 -0.06262447 0.09414442 -0.09098103 -0.043482155 0.01842053 0.33734643 -0.15519688 -0.096675 -0.04697639 0.1304678 -0.13790566 -0.19425231 0.20405172 0.0682613 -0.14936969 0.01282372 -0.10724448 -0.06491271 0.10679876
Tommen-Baratheon -0.045691036 0.053127512 -0.38050008 0.3164247 -0.16979177 0.011001022 -0.077988714 0.055515233 0.059824873 -0.0034272908 0.037473895 0.19442536 -0.16198091 0.02304219 -0.16397408 -0.093573675 -0.0495424 -0.0284087 -0.0012324399 0.07226083 0.13958272 -0.22556952 0.112764865 0.07207651 0.07454018 -0.15579785 -0.11299511 -0.19803803 -0.07727645 0.245349 -0.07081891 -0.12285 0.06537331 0.0026126022 0.006425099 -0.10688596 0.16835739 0.16023949 -0.15122421 -0.32008767 -0.12012336 -0.36378062 -0.1916043 -0.00058166694 -0.034559403 -0.036742438 0.19748157 -0.08222119 -0.3629748 0.14671087 0.15309043 -0.043615326 -0.13176017 0.11136176 -0.016356263 0.3126653 -0.22722238 -0.14267801 0.2759658 -0.010936435 0.019573713 0.19936454 -0.04030758 -0.28109896 0.19090615 0.10420501 0.13862707 -0.14460434 0.07738559 0.10609022 -0.27031356 0.15517716 -0.2512586 0.07569841 0.10449156 0.106807455 -0.009834535 -0.28223044 -0.074323736 -0.27331355 0.076938674 -0.14366479 -0.09543321 -0.13914093 -0.10753198 -0.03369251 -0.19181526 0.06644147 -0.11022731 0.013080641 0.3201638 -0.26330832 0.051652007 -0.23279719 0.037363775 -0.07468393 -0.15190832 0.106737085 -0.12520538 0.023235878 -0.28422686 -0.1628085 -0.015597575 0.07636221 -0.0940345 0.06182567 -0.07630775 0.22152278 -0.013386223 -0.018138446 -0.014841097 -0.031137647 0.15849435 -0.105172485 0.0967985 0.24162064 -0.002069529 0.24734496 0.4453208 0.044132583 -0.091955625 0.16553693 0.10555682 0.032657363 -0.10087861 0.0058223153 -0.18356267 -0.024228308
Drogon -0.22300783 0.12762986 -0.040962707 0.10226754 -0.11093565 -0.093374506 0.04171565 0.08603407 0.14824262 0.048418336 0.16635495 0.01454127 -0.18765587 0.03330859 -0.14311315 -0.0026854344 -0.019596945 0.09754037 -0.1656918 0.09765393 0.008995689 -0.5674576 0.20526168 -0.13580026 0.031209212 -0.1676193 0.061199885 -0.23574883 -0.17674688 0.008214394 0.005955866 -0.084883235 -0.057379644 -0.2582754 -0.15476792 -0.006572281 0.10333629 -0.049937375 0.035302542 -0.12038654 -0.24214894 -0.1882487 0.12584738 -0.32196897 -0.13106713 -0.17860721 -0.065609366 0.23000696 -0.10817137 0.0027802319 0.22721326 -0.20537698 -0.014348926 -0.13084082 -0.08822305 -0.15435623 0.03635481 0.2493474 0.051325988 -0.1491956 0.18822986 0.08682029 0.3016213 -0.28608382 -0.116090596 0.32781407 0.0455729 0.07134228 -0.29522917 0.1027562 -0.29400858 -0.0047367206 0.28759596 -0.009488071 -0.09043622 -0.13736527 -0.08035894 -0.23987988 0.030595537 -0.12951374 0.029562352 -0.19595389 0.006562196 -0.071180426 0.09975089 -0.073118456 -0.11802993 -0.0012852302 0.09138623 -0.18126053 -0.0375818 0.11012473 -0.08267075 -0.3610182 0.365187 0.23465598 -0.12544993 -0.02529332 -0.06554863 0.019820606 -0.055626728 -0.12415564 -0.3372555 -0.11077207 -0.36914515 -0.06931798 0.23607105 0.16574332 -0.03279521 -0.0128978295 0.17194599 -0.117301375 -0.10002414 -0.02798464 -0.0015577701 -0.12917311 0.008152007 0.24741459 0.12468951 -0.022104573 -0.11104091 0.08731032 0.18296313 -0.21692005 0.099293604 0.016915195 -0.0055862744 0.022114208
Mace-Tyrell -0.17859042 0.030007064 -0.3684802 0.2669851 -0.14640309 0.0035014325 -0.004190237 -0.031348094 0.0012626499 -0.0053894613 0.10012944 0.07588756 -0.11893884 0.051093884 -0.09337962 -0.1281158 -0.21771182 0.023574188 0.06351556 0.023357471 0.11090842 -0.06267363 0.073735625 0.01838557 0.04427939 -0.12813807 0.0021773516 -0.31898224 -0.15568851 0.20582227 -0.17370301 0.050860927 0.13117026 0.067751184 0.08798473 0.005323401 0.2150811 0.14692704 0.10100713 -0.28763425 -0.2694664 -0.40786165 -0.09880057 0.2500638 -0.05735232 -0.050659664 0.095010564 -0.04961414 -0.37548897 0.09876652 -0.03130637 -0.19068731 -0.1708687 -0.014981656 -0.18757272 0.24367426 -0.2095891 -0.36308888 0.34029555 -0.20535606 0.025259346 0.2044342 -0.0031883502 -0.40259254 0.25115114 -0.018496187 0.29194814 -0.11243449 0.15480424 0.047404595 -0.20022173 0.050089423 -0.21506736 0.040558115 0.092346415 0.12422279 -0.099721625 -0.19373451 -0.18736745 -0.17439312 0.108610876 -0.14095215 -0.13536532 -0.25247094 -0.031624213 0.035930064 -0.21864237 0.09829163 -0.09216254 -0.1283462 0.12879297 -0.1431624 -0.06517528 -0.38130075 -0.0037656939 0.082841 -0.18754613 0.22315048 -0.0893472 0.13071755 -0.096586585 0.0014339864 -0.08520765 0.013849212 -0.0022951255 -0.042812765 -0.21128595 0.2897289 0.118770994 0.061043896 -0.16087325 0.12510133 0.09925863 -0.026952151 0.12844959 0.121766366 -0.09993765 0.29162747 0.21176729 -0.05296274 -0.17391063 0.15209335 0.025193287 -0.1800874 -0.110499606 -0.08661757 -0.12371251 0.14150825
Grand-Maester-Pycelle -0.049397606 -0.040044915 -0.36287555 0.21120036 -0.19202733 0.014293589 -0.06565182 -0.018089285 0.043633163 0.14954263 0.097803645 0.5196801 -0.0035102426 0.17670996 0.034497965 -0.10878884 -0.2002374 0.051084403 0.10014265 -0.039042037 0.047204383 -0.23615241 0.123132646 -0.052852787 0.016122218 -0.12901212 -0.15140696 0.028411783 -0.0680654 0.049481247 0.044987433 -0.12568659 -0.02338093 0.038438175 -0.045824926 0.037259623 0.021909464 -0.06221518 -0.09273516 -0.4015775 -0.14185107 -0.2504638 -0.10337232 -0.01011623 -0.0044223573 0.024128802 0.13850586 0.062091954 -0.079516955 0.22325847 0.01631332 -0.10338913 -0.066147916 0.08475702 0.08462907 0.47617534 -0.16491117 -0.17423244 0.32330537 -0.21003407 -0.06114086 0.2193533 0.006528265 -0.29085657 0.31589 0.11218028 0.18332502 -0.19912842 0.29418254 0.10071563 -0.098404646 -0.11105997 -0.03941178 0.114110745 -0.1963905 0.13718162 0.017682327 -0.25312886 -0.09561649 -0.1021527 0.13665913 -0.2543109 -0.011650773 -0.17346497 -0.14347768 -0.050953027 -0.055939898 0.057470687 -0.00038287693 -0.10668456 0.39580464 -0.06461519 0.10183574 -0.24570754 -0.052957058 0.08877282 -0.010046857 -0.039911985 -0.17783651 0.20956917 0.058425304 -0.043924797 0.025641134 0.060160052 0.021026747 -0.01813322 -0.07435794 0.05851939 -0.01937946 0.13912112 0.20206194 -0.09164749 0.2271868 -0.21923132 0.15739267 0.09397465 0.091409646 0.10508438 0.18703498 -0.0013219501 0.070575036 0.09488258 -0.017988862 0.022578709 -0.0032943466 0.03531919 -0.07522093 0.35698584
Catelyn-Stark 0.25981244 -0.4373538 0.023992425 -0.43557373 -0.028843753 0.042204626 -0.09959863 0.12271503 -0.23579486 -0.026843598 0.25826707 0.17952028 -0.23023036 0.30244836 -0.21954425 -0.15578854 -0.0008181111 -0.036260657 0.28338304 -0.09060761 0.004820741 0.10831713 0.14962061 -0.042818863 -0.046636708 -0.29376668 -0.35713878 -0.25516275 -0.25198525 -0.04142645 -0.18414454 0.059233118 -0.060484204 -0.13290827 -0.016654577 -0.13385314 0.09382695 0.2699316 -0.27566433 -0.009089811 -0.3760733 -0.2317957 -0.14011641 -0.01742013 -0.002286008 -0.32349834 0.19515559 0.01358898 0.1825788 0.2374101 -0.17403887 -0.15990047 0.10767863 -0.015341164 0.07837837 0.38627434 -0.13765919 0.17150274 0.07034175 0.044397578 -0.026456373 -0.08299696 0.19229643 -0.40823627 -0.26653245 0.24831381 -0.15947708 0.0002993372 0.13505732 0.22263284 0.05730631 0.18889816 -0.2035918 -0.07461335 -0.22834955 0.37452123 -0.15051255 -0.0374527 0.052937094 -0.3987199 0.25361726 0.07539097 0.12579377 0.005453373 0.0034089303 -0.10286926 -0.38501883 -0.29578605 -0.24991843 -0.09088601 0.21330361 0.10009194 -0.02083922 -0.3243828 0.19125956 -0.09089469 0.04005687 0.4136953 -0.22468598 0.0006414031 -0.11961203 -0.069303215 -0.22883636 0.020639619 0.31292775 0.16190766 0.20501167 -0.17797236 -0.16874437 0.43975952 0.24023907 -0.43974563 -0.13950144 0.062315784 0.08213476 -0.11534292 -0.3883046 -0.023710204 0.02925078 0.30103388 0.1432153 0.09784734 -0.33584842 0.03296415 -0.13494281 -0.10899044 0.092575185 -0.06383773
Gendry -0.062089738 0.1690888 -0.2501969 0.014070926 -0.09401 -0.10366694 0.11227072 -0.19954969 -0.06820181 0.48495114 0.012235738 -0.029524315 -0.17454658 -0.007727937 -0.17660047 -0.12730564 0.042448614 -0.105590075 -0.3292114 -0.08044263 -0.10639486 -0.34798896 0.047347136 -0.22820504 -0.11646927 0.077963874 -0.066370055 -0.17202103 -0.23377545 -0.31430095 0.011622205 0.15585555 -0.21249902 0.02097075 -0.18820457 -0.033708286 0.35593772 0.018131131 -0.17757656 0.13386765 -0.036858097 -0.35608742 0.06200158 -0.06728155 0.13123049 0.090892084 0.0945935 0.2506982 -0.008700809 0.17512967 -0.125206 0.055676047 -0.02681526 -0.19274938 0.22609046 -0.21708502 -0.07751408 0.12193493 0.13128282 0.07132212 0.033551287 -0.051895525 0.26915565 -0.042717915 0.24052542 0.36797765 0.2870793 -0.27337396 0.09816387 0.7098827 -0.19149706 -0.363478 0.130595 -0.04663552 0.18743102 0.11197666 -0.03235857 -0.02372224 0.15391104 -0.11855059 -0.0865638 -0.092510454 -0.12106853 0.013432121 0.08432818 -0.019277222 0.0021104803 0.022748305 -0.09205771 0.14566226 -0.0065118684 0.0365869 -0.20302914 -0.041648276 0.030992769 -0.000603621 0.113651805 0.3410974 -0.035885084 -0.17615002 -0.0414997 0.11430748 0.35065094 -0.081844434 -0.16836052 0.15699568 -0.2945236 0.1258789 -0.017895212 0.25258538 -0.13635609 0.116201006 -0.14615692 0.13099614 0.021842614 -0.25074604 -0.38942143 -0.10152153 0.13071078 0.07591232 -0.011304502 0.19972867 0.13379447 -0.12093448 0.019151602 -0.24459201 0.111213654 -0.15475701
Petyr-Baelish 0.09423756 -0.13147052 -0.2623954 -0.16345066 -0.04842845 -0.02650081 -0.12062328 0.10693312 -0.15551563 -0.21379234 0.028269904 0.32353297 0.23386158 0.09913016 -0.14769989 0.105381444 -0.12702915 0.09290142 -0.110027485 0.15888344 -0.02198967 0.05317288 -0.21091032 0.21662226 0.086127594 0.13848327 -0.21237864 0.084212646 -0.15008783 -0.17256714 -0.005969679 -0.065313205 0.1947701 0.09988733 0.080501184 -0.0048203017 0.31380895 -0.066791475 -0.057733513 -0.015935864 -0.2832023 -0.29776198 -0.16345377 -0.22406687 -0.2060198 -0.250978 -0.044519152 0.023858925 0.16402684 0.2388717 0.32502973 -0.13590889 -0.1555554 -0.04336281 0.0231003 0.14903083 -0.38593012 -0.06376958 0.07828539 -0.119706295 0.021167833 -0.10464174 -0.03154837 -0.33996582 0.07771187 0.09713026 0.3380968 -0.17921354 0.16630366 0.20587835 -0.13296175 -0.09684326 -0.12790014 0.035555825 -0.26068962 0.33669332 -0.1738203 -0.22263478 -0.0790876 -0.052000713 -0.16346765 -0.13743497 -0.032082148 -0.1797361 -0.106482744 0.21029714 -0.22294739 0.03975335 0.033988755 -0.027074246 0.11058633 -0.074538775 0.045829117 -0.19662772 -0.030424943 -0.041444536 0.1621254 0.04100816 0.05946766 0.102148436 -0.02852858 0.06804485 0.095262304 0.058439966 -0.03869366 0.11157933 -0.03215846 -0.07548946 -0.25784996 0.1021829 0.2845072 -0.02129409 0.10604829 -0.2390478 0.17375492 0.024020059 0.028909056 0.28820097 0.45811847 0.0034138025 -0.13347594 0.08644762 0.11571657 0.01567267 -0.044440616 -0.16620813 0.041230522 -0.04143307
Bronn 0.0038408714 -0.23154336 -0.08006816 0.07179835 -0.058371257 0.087733954 0.036362406 0.10703386 -0.0042993734 0.12419769 0.058458157 -0.20560606 0.067223616 0.014397982 -0.1469756 0.05705783 -0.06710622 -0.19821015 0.023556763 0.0006287748 -0.018878767 -0.25216988 0.30551022 -0.18298489 0.1071487 -0.24880283 0.07802846 -0.29302928 -0.21230642 0.0855169 -0.0033583003 0.029080788 -0.13621207 0.07093223 -0.11851529 0.032541666 0.29061306 0.2709015 -0.22422136 -0.32446474 -0.38759246 -0.4100526 -0.016336318 -0.301665 -0.24721722 -0.45873675 0.06847315 -0.06497244 -0.13654007 0.043084968 0.17807783 -0.4383323 -0.16191085 0.11650365 -0.21369265 0.17552069 -0.23291393 -0.19031733 -0.083716854 0.058315527 -0.111682504 0.18741791 0.092586644 -0.14707336 0.09449257 0.25806648 0.10161681 -0.4609248 0.19719204 0.03967859 0.05414869 0.0900914 0.22429544 0.029149013 0.2606652 0.18765756 0.056945518 -0.20149982 0.1730945 -0.49713522 -0.052644175 0.21148425 0.10715586 0.13329053 -0.3334119 0.0016435104 -0.1073843 0.2985702 -0.072436646 -0.16216573 -0.04624212 0.36472857 0.03433026 -0.2944372 0.14576703 -0.038679235 0.03974487 0.059762396 0.0023363894 0.184325 0.030504487 -0.0679368 -0.032692548 0.21445163 -0.0040287427 -0.22848475 -0.10965269 -0.060129613 -0.15667361 0.3940319 0.006250228 -0.29165098 0.12668397 -0.31652907 -0.06793085 -0.016561778 -0.22071068 -0.15806071 0.011528423 -0.060108293 -0.17113827 -0.07030939 0.014146246 -0.19392331 -0.34314105 0.18031825 -0.21151453 0.12183322
Robb-Stark 0.17639405 -0.5094686 -0.014712764 -0.34367836 -0.11559941 0.19214495 0.06100496 0.041009866 -0.19523858 -0.2882227 0.28305173 0.36953813 -0.17510492 0.23348622 -0.38898087 -0.34948757 0.21121639 0.079694554 0.42208472 -0.17586003 0.057462446 -0.22739121 0.17282337 -0.110436775 0.14121492 -0.24582621 -0.18947066 -0.262698 -0.1293473 -0.046166234 -0.37344497 0.010370947 0.106359884 -0.20896411 -0.038811307 -0.17464997 0.10799135 0.24092232 -0.11844162 0.16211279 -0.41000545 -0.15524255 -0.3948333 -0.13285883 -0.014942394 -0.3092755 0.19018432 0.23984805 0.11728766 0.24199924 -0.39480054 0.013457654 0.18228897 -0.14414829 0.082223855 0.3294206 -0.12732217 0.05187867 -0.045674022 -0.13909061 -0.104528174 -0.23249897 0.26207748 -0.3161732 -0.1627416 0.26103082 -0.2778757 0.017384235 -0.07311386 0.13261282 -0.15056862 0.106797844 -0.31714764 -0.048551153 -0.18099917 0.19632119 -0.17685679 -0.12761198 0.26749915 -0.21615648 0.087986566 0.051128425 -0.120552056 0.009413064 -0.08886019 -0.15215947 -0.42067748 -0.23859686 -0.00082109554 -0.09238663 0.13734086 0.0013365946 -0.020527123 -0.34291232 0.09745273 -0.07401599 -0.070236035 0.5911328 -0.039177515 -0.0012265466 0.08173557 0.011349151 -0.013525484 0.04183143 0.28107142 0.16835232 0.046727937 -0.12352973 -0.13758938 0.44263655 0.1420755 -0.16309944 -0.246047 0.2805195 0.077192284 -0.11453136 -0.34484848 -0.15936314 0.034669038 0.033028055 0.14442317 0.04802225 -0.40424815 0.0868959 -0.08034935 -0.06695694 0.23868896 0.19619447
Rhaegal -0.15814887 -0.025093721 0.053380307 0.06438266 -0.10140011 -0.10789883 0.017772216 0.1364335 0.05196077 -0.027492229 0.18236135 0.029341385 -0.21565814 0.15165421 -0.18466097 0.0013433278 -0.15160054 0.032443143 -0.13924055 0.1018765 -0.17085524 -0.5520128 0.12334067 -0.21467403 0.12750536 -0.037718758 0.079438485 -0.22631352 -0.0386464 0.02457963 -0.037130743 -0.20474021 0.07975652 -0.075094 -0.14048675 0.02110002 -0.0020785655 0.06667524 -0.08357 -0.09514969 -0.11868784 -0.046592478 0.11806719 -0.24630319 -0.034081247 0.0725383 -0.009477241 0.17088637 -0.015382897 0.093331814 0.22684327 0.014349831 -0.07487841 -0.035987545 -0.019515818 -0.07097479 0.010297888 0.26625064 0.14222933 -0.20997691 0.1347114 0.08188281 0.22543691 -0.3761184 -0.005627754 0.2739499 0.19967471 -0.19620019 -0.06591718 0.17826068 -0.06655773 -0.08430332 0.3316541 0.10955641 -0.044345025 -0.14495297 0.13324974 -0.1984796 0.14058532 -0.14408392 0.36285266 -0.2401251 0.22362284 -0.0810364 0.20662384 0.12623791 -0.064954124 -0.2894749 0.16030613 -0.23450343 -0.09020108 0.09058639 -0.14670105 -0.38554114 0.3709952 0.41510624 -0.017912466 0.11492029 -0.28502125 0.14598398 0.03705642 0.030644795 -0.19891863 0.06672934 -0.250137 0.01581771 0.18848124 0.29475066 -0.04014301 -0.06956783 0.35254183 -0.016798362 -0.34764504 -0.23428072 0.045455236 0.026904136 -0.028413273 0.1747663 0.020578332 0.13188314 -0.05422373 0.09232085 0.10288503 -0.2912569 0.06589173 -0.03692094 0.013605432 -0.10521448
Hodor 0.3942706 -0.16826402 0.14442682 -0.3139566 -0.048754837 -0.12557223 0.27088702 0.18567264 -0.1892963 0.06338713 -0.28353965 0.20733039 -0.26532578 0.36018535 -0.23135442 -0.53817856 -0.39778396 0.24276437 -0.23610064 0.42417544 -0.06324648 -0.36397976 -0.08383913 0.07593359 -0.11446202 0.13833566 -0.11727915 -0.14247924 0.23495801 -0.1404235 -0.21123391 -0.0032401916 0.1756041 -0.3634378 0.038454853 -0.29441676 -0.07076235 0.47703797 0.2687669 -0.11296166 -0.15247342 -0.24750058 -0.2658138 -0.19216278 0.19603497 -0.062790856 -0.040302254 0.2618703 -0.10953893 0.14616513 -0.2137177 -0.27850413 0.3546394 -0.086864166 0.17257926 0.07959113 0.2160384 -0.25164717 0.02766126 -0.05707151 -0.3688003 -0.00073279324 0.40635914 -0.46562228 -0.38484138 0.21940856 0.10135039 -0.02900758 0.1382943 0.13128139 -0.08660091 0.02869147 -0.116111755 -0.10198872 0.2997145 0.18887374 -0.3275682 -0.3737177 0.3084542 0.07887393 -0.13208319 0.019881155 -0.03473181 -0.3657022 0.13204964 -0.15742047 0.18097414 -0.19703665 -0.023720684 0.012250713 0.037946 -0.10601365 0.24773172 -0.5119712 -0.024249233 -0.04898235 -0.14241937 0.2297773 -0.17266126 0.1828138 -0.03157252 0.05262355 0.036837723 0.24192667 0.04345693 -0.022599166 0.12897113 -0.067735076 -0.27925444 0.09727019 0.1501601 -0.04826453 -0.2394886 0.0807251 0.44357142 0.05148301 -0.14650567 -0.025623254 -0.14510344 0.12987071 -0.2075341 0.3946216 -0.062348384 0.24596483 0.2511094 0.1985079 0.053914744 0.13787149
Beric-Dondarrion 0.10887364 0.12286345 -0.22403024 -0.059088517 -0.035516437 -0.028574858 -0.05828535 0.02353145 -0.046586968 0.19390629 -0.099360816 0.20980915 -0.09323905 0.10971114 -0.12545422 -0.2684659 -0.0825367 -0.015157893 -0.2003198 0.04341737 0.0022178038 -0.2605248 -0.034850135 -0.19837306 -0.07518821 0.038861435 -0.030417535 -0.10217286 -0.2769119 -0.07916483 0.04336568 0.0476365 -0.13425174 -0.017911285 0.01726204 -0.14417471 0.25298238 0.04388899 0.11622836 -0.1263964 -0.24777557 -0.134247 -0.08300165 -0.2430022 -0.13266905 0.18753976 -0.11474037 -0.013389128 0.033998895 0.10237125 0.12145678 0.26492852 -0.018440086 -0.16969813 -0.06116259 0.01042304 -0.06061457 0.28216285 0.19564563 0.017077114 0.023514004 0.15913454 0.50426805 -0.29869568 0.3401466 0.23196943 0.31869176 -0.020412005 -0.052579258 0.54537576 -0.18445306 -0.30786297 0.17534935 -0.26013952 0.092906065 0.0034451105 0.054834932 -0.1384987 0.020439591 0.012337073 -0.1071726 -0.20664468 -0.1111671 0.07941663 0.27841896 -0.05688882 0.035067786 -0.014033414 0.21139677 0.03546658 0.04942834 -0.0047396393 -0.2751285 -0.11981089 0.09321905 0.028871758 0.17510755 0.16845772 0.025344418 -0.11175192 0.12890975 0.008643721 0.071403824 -0.08908064 -0.09120839 -0.013029194 -0.06032981 0.056083884 0.028700972 0.15084842 0.049820416 0.14949054 -0.3153523 0.056788392 -0.072681874 -0.27667442 -0.3468809 -0.031167509 0.0007145933 0.022225266 -0.10105884 0.35813296 0.17641164 -0.105199896 0.16077892 0.071002185 0.12020977 -0.16276982
Gregor-Clegane -0.33538753 -0.1589494 -0.21598421 0.35546908 -0.13305722 -0.10501269 -0.07443181 -0.07381247 0.14285436 0.123004444 0.10812239 0.24278508 -0.03590651 0.19705898 -0.017897785 -0.025463725 -0.024131136 0.053326648 0.15912232 0.05978317 -0.13061272 -0.41760415 0.020357769 0.03928549 -0.07021461 0.067617044 -0.034412596 -0.10045542 -0.094842486 -0.042397663 0.18469061 -0.026287686 0.048293795 -0.014327988 0.009947722 0.08561458 0.042655583 0.20213127 -0.053289928 -0.19129834 -0.25341716 -0.30649474 -0.046602163 0.1048014 -0.0012988172 0.0067421966 0.09340521 0.030525504 -0.028435454 0.30371118 -0.03058742 -0.15576667 0.004466771 -0.05294463 0.1362039 0.31607258 -0.19034275 -0.12626693 0.011622523 -0.17450924 -0.017094003 0.317802 0.14615853 -0.16931637 0.11499304 0.008403598 0.114474006 -0.16157183 0.11688933 0.08842961 0.10267088 -0.08209554 0.050257865 -0.0022386396 -0.10812715 0.07865906 0.23641406 -0.15637727 0.1262016 -0.12561 0.07196871 -0.16186444 0.019891163 0.092336126 -0.11672954 -0.13238162 -0.13344567 0.010404811 0.12773189 -0.09988828 0.20232306 0.10906835 -0.18166104 -0.26073778 -0.090574935 0.037476283 -0.17285764 0.3555716 -0.20440279 0.07719722 -0.08886533 0.012917874 0.16724977 -0.07110885 -0.17121914 0.16618264 0.064479694 -0.07978367 0.11981497 0.2730614 0.11640356 0.10462632 0.015831936 -0.3169899 0.21188329 -0.09540061 -0.11011604 0.23093644 -0.008402588 -0.0025518418 0.05628395 0.16694917 -0.0321979 -0.22112891 0.19308537 0.2796625 -0.20512642 0.38243836
Barristan-Selmy -0.06193537 0.063959874 -0.09347938 0.18084177 -0.32404572 -0.035573456 0.06902395 0.0054739397 0.14441918 -0.032911427 0.12551352 0.071478345 -0.05214966 -0.01132626 0.032529913 0.03018269 -0.27524912 0.119307734 -0.23184286 0.09338906 0.014682098 -0.30450788 0.20525213 0.098236665 -0.11416071 -0.073143564 -0.03316213 0.1993945 -0.16251732 -0.22698148 -0.012894428 -0.053319644 -0.22800373 -0.015267838 0.03915206 -0.05089701 -0.16831979 -0.0028506843 0.028359724 -0.16265124 -0.2956881 -0.32375318 -0.27837864 0.1538598 -0.09930136 -0.27365914 0.029540252 0.10643905 0.062238816 -0.11357469 0.19709255 -0.06349755 -0.1645974 0.044236857 0.00032951543 0.16249391 0.08912921 -0.066382125 0.28776708 -0.27203134 0.18043944 -0.026336562 0.34388053 -0.037421655 -0.13683121 0.32445624 0.17683719 -0.026363308 -0.2500666 0.34486818 -0.002317214 -0.17192863 -0.09081881 -0.12714243 -0.100589894 -0.17210633 -0.23737594 -0.22124578 -0.01715176 -0.055730272 -0.091690175 -0.46957716 0.052665584 0.013431118 0.21453463 0.19026901 -0.4367179 -0.046147685 -0.20148212 -0.16703187 0.19517131 0.29403844 -0.06180528 -0.25111327 0.21439125 0.10140443 0.00057187 0.1729381 -0.27714765 0.028387712 -0.042742956 -0.027576432 -0.23611797 0.04206586 -0.4247361 0.16785294 0.11322526 0.13418874 -0.015940415 0.030281387 0.41506588 -0.045820467 -0.024894029 -0.20167162 -0.08582499 0.097787246 0.09915584 0.24080981 -0.18566883 0.1244197 0.031043941 0.13922206 0.26715848 -0.039731134 0.07915175 0.19541806 -0.3000617 -0.114880465
Qyburn -0.20934424 0.018945577 -0.19639558 0.1764846 -0.089250155 -0.2502858 -0.00010687498 -0.21074232 0.15684308 0.116371885 0.19580829 0.5393488 -0.18700296 0.13233377 0.11221488 -0.019775316 -0.22319794 -0.2808749 0.08197041 0.0065365387 -0.13149828 -0.411142 0.11405817 -0.22297819 0.0025273196 -0.09440662 -0.0006231761 -0.13821064 -0.09889273 -0.10407154 0.1338217 -0.0029752296 -0.06937991 -0.1826098 0.0746222 -0.06335497 0.20374206 0.09730989 -0.071223155 -0.30541104 -0.17333809 -0.18127722 0.08073009 0.06035665 0.040945042 -0.0074895704 0.1426485 0.09326633 -0.34636548 0.08227422 -0.07735933 0.07691453 0.0016987451 0.19454783 0.048702825 0.32656887 -0.22584562 -0.23550719 0.2270231 -0.21552359 0.044104587 -0.093475886 0.082802996 -0.35402644 0.2560146 0.1349021 -0.08945936 -0.19930093 0.04321468 -0.06499245 0.1450317 0.060727485 0.12771256 0.14383398 0.002891782 0.24345252 0.038997646 -0.19589506 0.052057393 -0.054882232 0.24136667 -0.10981098 -0.041059162 -0.050054677 -0.38517195 -0.02057123 -0.22342594 0.19689466 0.2431147 -0.023888068 0.37559468 -0.1417023 -0.34231335 -0.051641513 0.06964872 -0.023501465 -0.35893393 0.20469673 -0.2773566 0.13749349 -0.19504921 0.13927132 0.00010371871 0.16974513 -0.018866042 0.00042119605 -0.05041266 -0.13380913 0.088440865 0.15503465 0.26622418 -0.059657346 0.104133084 -0.28433707 0.24537426 -0.20493987 0.041590586 0.06673927 -0.34962273 0.010253119 0.061910216 0.15665047 0.022260644 -0.15996465 -0.086960256 0.25420696 -0.2985201 0.27234915
Qhono -0.25669548 -0.09923647 0.13607097 0.32041287 -0.1559015 -0.112276524 -0.057151802 -0.03634661 0.105552405 0.11003498 0.076415196 0.07722312 0.047802147 0.0768628 -0.060424153 0.19222924 -0.056303404 -0.07063415 -0.246528 0.13465534 -0.12799877 -0.37354395 0.18419921 -0.060832914 -0.12844022 0.05451295 0.029935732 -0.17742468 0.000312558 -0.004161826 0.0857608 -0.021197742 0.062883355 -0.024853801 -0.009805234 0.18347895 0.022344394 0.14758709 0.032505203 -0.079326995 -0.2636845 -0.37555453 -0.12575978 -0.16173069 -0.002497815 -0.22623003 0.064857975 -0.0066383784 0.049770907 -0.056042314 0.18569688 -0.105646595 -0.046175558 -0.11774676 0.15205157 0.0713818 -0.06777593 0.16089417 0.23777781 -0.00963923 0.24121876 -0.063031696 0.12107608 -0.29611576 -0.053537972 -0.015479989 -0.014036989 -0.1384259 -0.15409859 0.15174575 -0.06849484 -0.21708085 -0.054903176 0.11364191 0.01873603 0.10243952 0.036694184 -0.32803398 -0.02370117 -0.12859707 0.050363135 -0.19162126 0.02522618 -0.046244916 0.123358764 0.03379992 -0.10784772 -0.17786132 0.19148323 -0.036636036 0.1058566 0.05707111 0.007005043 -0.21433416 0.25603893 -0.06788178 -0.16711673 0.016407311 -0.1736248 0.07215899 -0.12996696 -0.004514445 0.19070953 0.06105725 -0.34305874 0.012085649 -0.03704295 -0.059763927 0.0740214 -0.0046794256 0.21697928 0.19962046 -0.248837 -0.15078984 0.2500179 -0.24684383 -0.13350818 0.11895263 -0.3209759 -0.13944991 -0.19885075 -0.07273736 0.026316972 -0.14291303 0.07300246 -0.13000694 -0.109679386 0.04980903
Daario-Naharis 0.08485447 0.18923852 0.01776645 0.0059256507 -0.27431267 -0.10291071 0.21597812 -0.015508381 0.04316155 0.019535081 -0.029870128 0.052265488 0.02494893 0.12754595 -0.18187244 0.074054755 0.066411465 0.1512163 -0.40883932 0.051213995 -0.20827001 -0.24457085 0.14277801 -0.2500118 -0.22562417 -0.112373665 0.019989695 0.10696518 0.031584993 -0.001834955 -0.15366104 0.04164068 -0.23413227 -0.044097625 -0.06969279 -0.038709626 -0.28824267 -0.21121125 0.2403542 -0.04707492 -0.41551763 -0.17576523 -0.098988794 -0.046963807 -0.039076358 -0.33559635 0.003028511 0.30429536 0.11406928 -0.21773568 0.20683992 -0.26731092 -0.2156374 0.09091971 -0.0030484109 0.16685335 0.049654156 -0.07848256 0.37725264 -0.16075696 0.22734936 -0.15644345 0.15730904 -0.1100416 -0.030786408 0.25056973 0.01511126 -0.29285583 -0.58334655 0.3235407 0.0055836043 -0.106488705 -0.0008377241 0.12625474 -0.14201415 -0.3132086 -0.21356878 -0.2186021 0.3481955 -0.10773085 0.071016856 -0.38093954 0.17258424 -0.1166585 0.07257722 0.25078163 -0.27559975 -0.08963618 0.1755197 -0.32544476 0.103290066 0.30596218 -0.022993159 -0.20474249 0.4358782 0.17827828 -0.13939935 0.23007299 -0.25576288 0.031816944 0.20832527 0.09699924 -0.1665844 0.18072686 -0.458502 0.1392273 0.13391519 0.40962705 -0.06284062 -0.29044753 0.3866985 -0.10985072 -0.12615515 -0.09612986 0.10369409 0.1352657 0.013781867 0.1599233 -0.1792503 0.22367056 -0.074799016 0.1457342 0.36601877 -0.093398474 -0.1459846 -0.044806827 -0.10891459 -0.033831764
Viserion -0.11472731 0.049905214 0.2715246 0.029500531 -0.19127382 -0.036256433 -0.10984999 0.24129291 0.029649582 -0.024960278 0.039406653 0.12488586 -0.08899692 0.28384706 -0.1255913 0.090849616 -0.00088220875 -0.051915433 -0.2834138 0.016768796 -0.16336367 -0.5231168 0.03251626 -0.15763733 -0.060324095 -0.12376455 0.050296485 -0.23499827 -0.086207815 0.0046351044 -0.0012632242 0.0043491446 0.020130876 -0.19298795 -0.08747223 -0.107916884 0.073263794 -0.10145701 0.13029447 -0.17494126 -0.15312134 -0.08255696 0.17422332 -0.3451855 -0.031988576 -0.17258008 0.0057855565 0.073324926 0.1199127 0.025316622 0.024273727 -0.20405163 -0.2629144 0.0036606789 0.04498842 0.057909764 0.14512491 0.18764296 0.36487156 -0.028803283 0.15719794 0.17346697 0.31010243 -0.2394695 -0.2003254 0.34040478 0.0077298298 -0.036406633 -0.2560448 0.2834349 -0.07289912 -0.08160633 0.35842195 0.07770376 -0.04480592 -0.12169864 0.15688829 -0.113002434 0.2107426 -0.1995755 0.33570108 -0.34871036 0.15402763 -0.17917515 0.25012863 -0.009461068 -0.006869771 -0.34236914 0.13426746 -0.27700678 -0.075795956 0.08640272 -0.01170848 -0.25474426 0.37669292 0.35731846 -0.010363767 0.056876846 -0.33943346 0.001571089 0.003730642 0.036035467 -0.22921109 -0.06416374 -0.38651258 -0.21580526 0.22918054 0.26219735 -0.08760415 -0.010601391 0.3084091 -0.05429276 -0.2265213 -0.17957638 0.08245388 -0.018219842 -0.03374163 0.13621211 0.23892793 0.008987769 -0.019988293 0.08986598 0.19768092 -0.3651334 0.010907453 0.07520009 0.11032322 -0.15322427
Eddard-Stark 0.28462645 -0.35730183 -0.19800667 0.08218775 -0.22616486 0.1392905 -0.18891658 0.19255245 0.19383116 -0.32592458 -0.25395972 0.20594676 -0.013727968 0.19518755 -0.21110156 0.032545067 -0.13594136 0.3449129 0.06798414 -0.14785345 0.097062245 -0.23007865 0.03537508 0.3519084 0.008709521 -0.12802565 -0.1283998 -0.11477066 -0.20778002 -0.0127663575 -0.10952916 0.100740045 -0.058456674 -0.041982748 0.023716494 -0.008216147 0.016961465 -0.08931529 -0.14303032 0.12676652 0.013518601 -0.27927858 -0.35821286 0.08270684 -0.14452164 -0.29098788 0.22854698 0.057033557 0.25664237 0.27842292 0.053089075 0.07947207 0.009482624 -0.14769915 0.23643604 0.0025117218 -0.22074041 -0.3185722 0.22083849 -0.074731894 -0.33542967 0.120649636 0.03878459 -0.2892747 0.33954975 0.1171007 -0.058266822 -0.023309264 0.1562801 0.33300102 -0.049780346 -0.07202648 0.1344727 -0.09066259 0.21132949 0.17470483 -0.048802324 -0.08390236 -0.1229142 -0.16864063 -0.104943395 -0.2327557 -0.21677716 -0.0070269867 0.32133275 0.12135464 -0.2581951 0.0040442217 -0.50789106 -0.03737056 0.19248365 -0.12908342 0.027166147 -0.28062263 -0.027645607 0.03567442 -0.1599913 0.5064138 0.013868419 0.086509846 -0.024672452 -0.19260219 0.010809358 0.26341265 0.06688017 0.21173036 -0.1776254 0.010490005 -0.22033347 0.23052712 0.25370133 -0.07357514 -0.19638272 -0.043939475 0.20961285 0.059383217 -0.088350356 -0.016401159 0.4800726 -0.012372729 0.32698524 0.0040585543 0.07366136 -0.08339513 0.23634876 -0.10381148 -0.11143719 -0.024607329
Meera-Reed 0.32751364 -0.10740497 0.15774654 -0.34876978 0.0016430797 -0.022130141 0.28456658 0.17138425 0.10161365 -0.080057204 -0.35030276 0.016888438 -0.33235964 0.3201146 -0.09257226 -0.4528066 -0.23549731 0.31046808 -0.2227699 0.3872667 0.013944182 -0.41686368 0.08851237 0.16015826 -0.13919362 0.009461884 -0.31820506 -0.20069411 0.32353938 -0.07542332 -0.1728689 -0.088962466 0.010181943 -0.43419328 -0.023518736 -0.37272042 -0.007303889 0.33241564 0.24583541 -0.12585795 -0.027012933 -0.21690015 -0.18184671 -0.34281486 0.06675921 -0.07269831 0.03227898 0.46092787 -0.10033251 0.121630594 -0.14200364 -0.37461248 0.5123518 0.038443457 0.14605592 -0.12986873 0.15974161 -0.2721365 0.1198238 -0.10517769 -0.24114999 -0.0506652 0.31326583 -0.5087108 -0.24841061 0.20553334 0.20125125 0.001365722 0.18283413 0.009633272 -0.11229846 0.1350572 0.09480393 -0.17597167 0.2184679 0.27885377 -0.33275723 -0.34457636 0.23654294 0.057996474 -0.13792083 -0.032777634 -0.14932738 -0.29189157 0.12884174 -0.24086775 0.14687878 -0.102628596 0.004902006 -0.03247975 0.070510946 -0.22650823 0.113214366 -0.3714773 0.11487475 -0.13997336 -0.39503843 0.28718764 -0.14291315 0.115581796 -0.21817131 0.038488988 -0.035122603 0.26226684 0.049467403 -0.0041326075 0.03332864 0.017340565 -0.23307274 -0.09680152 0.24629651 -0.25445208 -0.18930472 0.21999854 0.2963603 -0.08712645 -0.15954822 -0.12133426 -0.0025564898 0.010704343 -0.067767605 0.5738221 -0.06671752 0.2884873 0.22179994 0.19575508 0.007943843 0.1751565
Grenn 0.1593703 -0.12667091 0.2484297 -0.034931865 0.083458975 -0.34978896 0.23655152 0.18070501 -0.03781804 0.25416222 -0.062429145 0.17421576 -0.2816332 -0.110209584 0.1183547 -0.20950194 -0.12636912 -0.0795847 -0.0038110614 0.29430705 -0.16223808 -0.7252539 0.071892396 -0.16218811 0.12606908 -0.15311672 -0.20059493 -0.055658605 0.23166613 0.52773523 0.33367404 0.22251375 0.034697425 -0.058391795 -0.020850675 -0.31202924 0.31776482 0.14391574 -0.35044715 -0.20940673 -0.18507981 -0.017191038 -0.036175676 0.14107856 -0.024872087 -0.17048842 0.09056697 0.03101177 0.18481131 0.13101412 0.16166323 -0.18352824 -0.15248004 0.09910184 -0.24849947 -0.14670591 0.08981022 0.029000489 -0.013551824 -0.17409535 0.28532147 0.049933784 0.14975367 -0.39219415 0.101806544 -0.101821296 -0.1818614 -0.31294906 -0.31310943 0.6647211 0.09817637 0.04282436 0.24158794 -0.5502156 -0.025493246 0.07747263 -0.3838978 -0.24120623 -0.20846005 0.007727696 -0.14043981 -0.29325944 -0.26178327 -0.16284864 0.31302992 0.07051409 -0.086744584 -0.30135185 -0.010704841 0.17759444 0.18522732 -0.06466121 -0.10736277 -0.17484191 -0.1538815 -0.13809407 0.027591297 0.2755069 -0.22070873 0.049076993 0.1892097 0.24441801 -0.006598627 -0.072250724 -0.14337572 -0.2938963 -0.07939529 0.005229518 -0.12624171 -0.17121549 -0.09415627 -0.09469976 -0.0072786533 -0.045339834 0.35054737 -0.09943947 0.0071485215 -0.16412069 -0.09766698 -0.23799607 -0.20954235 0.043228045 0.3778438 -0.089466475 -0.10612 0.12897246 0.16912688 0.092445046
Olenna-Tyrell -0.06815744 0.15021943 -0.35766798 0.1664253 -0.124424264 -0.18571827 0.06596474 0.062184457 -0.117866464 0.02845095 0.14540924 0.19214651 -0.121482015 0.16939168 -0.22099504 -0.08868145 -0.18212919 -0.07971871 0.0033399146 -0.06951478 0.138534 -0.15934853 0.15126443 0.18026324 0.10197962 -0.1784667 0.037060928 -0.09954706 -0.0224599 0.36795342 -0.18410128 0.0672756 0.0867186 0.19490246 -0.009299579 -0.2733914 0.15352711 -0.0020570073 0.09742212 -0.23979773 -0.17115243 -0.2360622 0.030945282 0.04597645 0.018113183 -0.041160863 0.06963593 -0.017529802 -0.32398328 0.16360013 0.033022705 -0.17767175 -0.10382113 0.11484995 -0.041785005 0.31254658 -0.28673896 -0.101052456 0.2871892 -0.05816803 0.023222389 -0.020062283 0.026718596 -0.28599104 0.19381714 0.05381625 0.23956856 -0.22270188 0.15960185 -0.0372462 -0.07590607 0.1215566 -0.1927469 0.06269324 0.05581351 0.13921602 -0.092018045 -0.29254317 -0.11598415 -0.11953603 0.3567525 0.005610236 -0.28970945 -0.19919644 -0.17600279 0.08235369 -0.20511279 0.06943498 0.042864226 0.07436957 0.19225486 -0.13024047 -0.05305532 -0.29822823 -0.003522994 0.065820515 -0.03202368 0.13032883 -0.16441774 0.052800544 -0.29375663 -0.13812146 -0.063512474 -0.09208694 -0.1216032 0.056810502 -0.05869352 0.25817704 -0.11113854 0.043307442 -0.114537574 0.050470643 0.05071777 -0.114050195 0.06807723 0.22574095 -0.07852322 0.26970014 0.31460455 0.09391599 -0.08280177 0.23822868 0.15537766 -0.03824192 -0.10817549 -0.017910492 -0.054507226 -0.0018239256
Loras-Tyrell -0.13692814 -0.0044393013 -0.18237063 0.3059545 -0.35511026 -0.13737874 -0.0778134 -0.04337186 -0.0005191306 -0.04116263 0.056231815 0.25245678 -0.059685998 0.061980914 -0.06183785 -0.12381521 -0.23641548 -0.031297836 0.1327377 -0.053714465 -0.03782158 0.070462964 0.22641073 0.08193936 0.07062341 -0.2562643 -0.19630809 0.08544496 -0.14147638 0.17059873 -0.004523642 -0.10902706 0.062173266 0.31917313 -0.08044816 0.054188225 0.12905093 -0.07662654 0.05920871 -0.32555383 -0.19178194 -0.39690426 -0.02010664 0.07923497 -0.08597301 -0.2512112 0.20632572 0.030755468 -0.25180054 0.036667865 0.16351525 -0.2089191 -0.025979605 0.13830633 0.015446716 0.288427 -0.24772711 -0.17601871 0.3938523 -0.16812742 0.07308319 0.24187894 0.031397365 -0.3491847 0.18110655 0.034665536 0.24828202 -0.26056206 0.3319752 0.08814251 -0.12586561 0.017159298 -0.17272218 0.043289345 -0.038041532 0.09286175 -0.0472003 -0.28109482 -0.08608872 -0.2622088 0.11934363 -0.046418574 -0.24121334 -0.21644051 -0.22160059 0.044545922 0.033193275 -0.031347908 -0.0686036 -0.121438645 0.24227324 -0.2065135 0.063370585 -0.1450169 -0.06273105 0.022842584 0.1336289 0.12596229 -0.17975444 -0.061053474 -0.14598605 -0.15127939 -0.14723074 0.041464478 -0.14422522 0.034884125 -0.23495333 0.26611823 -0.072198495 0.20465863 0.044676334 0.10092482 0.048509356 0.020405423 0.11924836 0.32331887 0.08463406 0.3813194 0.5542901 -0.12103335 0.077678375 0.14143278 0.16764764 0.004966332 0.020876255 -0.017383581 -0.09266898 0.23300894
Yohn-Royce 0.00068372325 -0.06517359 0.055068295 -0.079636656 -0.08872663 0.040093385 -0.10143967 0.054894898 0.038075946 -0.27945 -0.0036763854 0.22085072 0.012354852 -0.14397971 -0.031147238 0.084359154 -0.32340285 -0.06183383 -0.15177417 0.103182815 0.009356395 -0.14939393 -0.14892845 -0.043724723 0.10506267 0.069170855 -0.01951352 -0.12440508 0.13506089 -0.22446242 -0.0650219 0.014266471 0.0609209 0.16225708 0.058233194 -0.19631377 0.1310486 0.04249385 0.06962707 0.029305335 -0.19201306 -0.3927467 -0.001961161 -0.27037114 -0.20918682 -0.10483101 -0.27220193 0.19998835 0.046965018 -0.1666157 0.07107505 -0.3239064 -0.17003295 -0.16037352 0.011307935 0.13458897 -0.2779299 -0.05191329 -0.0035002711 -0.14471315 0.12545775 -0.10797516 0.21951047 -0.17404376 0.061925337 0.21133198 0.41493008 -0.34462607 -0.063662596 0.310448 -0.10443964 -0.3497724 -0.06573387 -0.02273007 -0.0013032462 0.31988546 -0.3050707 -0.017020412 0.023951633 0.03204477 -0.050500315 -0.22072534 0.08895957 -0.086847015 -0.2529556 0.20872223 -0.21015857 -0.20249316 -0.010576923 0.028626913 -0.048497885 -0.008637052 0.029812893 -0.2630465 0.114281334 -0.20461226 0.065016486 0.045794934 -0.1299811 -0.13924807 -0.075321406 0.0034318506 0.08209254 -0.17636868 -0.008701447 0.12504666 0.017940547 -0.120040245 -0.046786625 0.0654151 0.29207388 -0.26662052 -0.08536102 -0.25663623 0.23903458 -0.17203084 0.08488665 0.21420264 0.06847756 0.026799383 -0.4560756 0.1086057 0.12352447 -0.12481976 0.15273444 -0.2295972 0.13520266 -0.10417176
Alliser-Thorne 0.16465777 -0.06367565 0.140811 -0.08262043 -0.019599658 -0.42335194 0.16048272 0.20252623 -0.38892728 0.23794629 0.09847147 0.39163026 0.1773257 -0.0076731434 0.15178463 -0.103843346 -0.08947857 -0.10229756 -0.38360325 0.17521477 -0.12439541 -0.44148037 0.09986571 -0.02227949 0.17842779 0.037700582 -0.3364543 -0.22935864 0.12833925 0.16523623 0.10682611 0.009157625 0.09055812 0.05962115 -0.08775635 -0.3913783 0.35147735 0.15698534 -0.23555805 -0.32949176 -0.3204927 -0.30788344 0.2642432 0.13140571 0.01688703 0.020557672 0.14737579 0.3816401 0.34280074 0.031219516 0.37634346 0.1365203 0.04266161 -0.24296173 -0.072334215 -0.2241774 0.03675906 0.05829921 -0.008653204 -0.30675682 0.22259697 0.13209069 0.282206 -0.17623419 -0.33193186 -0.002026487 0.03797038 -0.4602126 -0.06356219 0.5928228 0.21748549 -0.10696442 0.23215087 -0.33714995 0.010688959 0.056929503 -0.14062405 -0.16563447 -0.0034988276 0.012699644 0.055286225 -0.14876728 -0.42283994 -0.23759297 0.31872267 -0.042653423 0.044851884 -0.112926565 0.18707009 -0.06464377 0.10301841 0.09161233 0.021308167 0.06146261 -0.15291303 0.036788635 0.033729076 0.11543093 -0.14445232 0.15221204 -0.028166793 0.09143157 -0.05432502 -0.13329276 -0.17303108 -0.1343166 -0.049326733 -0.039384756 -0.027352042 -0.09718289 0.16872624 0.06518787 -0.04006551 0.059471272 0.34569728 -0.06178835 -0.012768968 0.06058123 0.030343244 -0.26307803 -0.020860435 0.045140486 0.18515134 -0.13648579 0.0704841 -0.020086162 0.06344834 0.37906075
Lyanna-Mormont -0.07833934 -0.18921056 -0.06223458 0.11487897 -0.26211908 -0.063130826 -0.15490964 0.116064586 0.08948246 -0.029565524 0.027569793 0.21039344 0.019710554 -0.10044745 -0.14293686 -0.04955527 -0.21093419 -0.025813015 -0.09098049 0.08667027 -0.04602583 -0.15960823 0.030565035 0.057890143 -0.039500263 -0.12872288 -0.07762468 -0.13357563 0.21411514 0.09099446 0.13456422 0.0808628 0.048131518 0.11451689 -0.1492304 0.010361005 0.0016200865 0.05654658 0.15655209 0.10390768 -0.19318737 -0.34892908 -0.14504018 -0.258015 -0.15539251 -0.006270458 -0.058925882 0.059396878 0.1985297 0.019892385 0.28882766 -0.13749647 0.04197556 -0.22491378 0.19347686 -0.13942349 0.08971536 0.02009909 0.04092601 -0.16818425 0.16716093 -0.047292482 0.46135584 -0.31313157 -0.029532392 0.20469971 0.304063 -0.34378353 -0.034987014 0.09115807 -0.08137222 -0.28271705 -0.30259028 -0.21233582 0.049201757 0.10837116 -0.12944195 -0.28631434 0.04089357 0.007344805 -0.08377863 -0.043252207 -0.056893945 -0.04928859 -0.28065887 0.23661804 -0.2761539 -0.37187222 0.060126614 0.08080084 0.03165304 0.040975258 0.17586015 -0.13990508 0.20166622 0.032526217 -0.00092556153 0.04033285 -0.024411524 -0.016005259 -0.062394395 0.1487699 0.3015129 -0.24932784 -0.028712457 0.053686682 0.31514537 0.053608827 -0.11707097 0.11575602 0.09589276 -0.089925155 -0.1422913 0.047747627 0.15429586 -0.35327485 0.20583297 0.118923604 -0.009079548 -0.014682792 -0.48615575 -0.053921215 0.040252376 -0.053287737 0.1258985 -0.29865548 0.10210513 -0.115592144
Gilly -0.022702735 0.14780876 0.31740254 -0.20176722 0.18193217 -0.09535339 0.20641376 0.32301104 -0.13180666 -0.03234369 -0.15572868 0.14256886 -0.014749313 -0.2494334 -0.12586778 -0.37044156 0.05589474 0.1397722 -0.22985546 0.13466184 0.15858167 -0.24981633 0.1417073 0.19171523 0.11617916 0.073568895 -0.5011252 -0.23061602 0.21861885 0.229994 0.16854173 0.027272321 0.16926377 -0.08004035 -0.26465315 -0.28025934 0.18650155 0.10307808 -0.23131073 -0.1058371 -0.24835387 -0.25401348 0.011245762 -0.13647793 0.06417432 -0.36982736 0.2017914 0.36836317 0.30410528 -0.03338649 0.13308078 -0.23309593 0.3055542 -0.03549956 -0.16239208 -0.1797836 -0.31464723 0.09246105 0.121230714 -0.43992937 0.26297995 -0.17179608 -0.013185832 -0.25001842 -0.045816574 -0.5212179 0.34898877 -0.36393425 0.08443334 0.16758783 -0.21226713 0.38981277 0.20783804 -0.5550401 0.10812931 0.016501665 -0.15866037 -0.27150947 0.034378257 0.010300816 -0.17820315 0.08546178 -0.066906005 -0.28776234 0.09630027 -0.10841047 0.20194176 0.16493882 0.02398202 -0.23846574 0.2624921 0.23178455 -0.25186828 0.041273575 0.031162255 -0.030468933 -0.20460013 -0.03284252 -0.4385724 -0.04856653 -0.09423082 0.0014057832 -0.26117542 -0.08142568 -0.4509706 0.056055497 -0.067592554 -0.049806498 0.09038865 -0.09517275 0.0659606 0.19285496 -0.18483809 0.32589945 0.37395006 -0.076624244 -0.07290453 -0.28837693 -0.03773062 0.020653846 -0.1617056 0.048493437 0.017080847 -0.13705534 0.2823602 -0.22094041 0.026597522 0.44321764
Ellaria-Sand 0.0024026576 0.13544159 -0.32144943 0.100985184 -0.1391425 0.109888695 0.1880204 0.041353617 0.01824691 0.059185278 0.27550295 0.26140043 0.34118733 0.44306502 -0.0066527007 -0.26054758 -0.17550017 -0.3030295 0.14806758 0.17173964 0.12618211 -0.2429168 0.335418 0.32903418 0.07969295 -0.33456492 0.11734973 0.0412295 -0.092986904 0.25252438 0.08532684 0.19162722 0.025579067 -0.19126317 0.12191726 -0.24198821 0.47870368 0.19096278 0.24630179 0.0130581 -0.21710707 -0.5136889 -0.18897139 -0.17247193 -0.30589676 -0.16631074 -0.022680514 -0.041159615 -0.40655512 0.12689555 -0.047864813 -0.12883955 -0.114936315 0.16174068 -0.11100112 0.188132 -0.1819083 -0.17836799 0.2896002 -0.058428776 -0.2166841 0.20362967 0.012439672 -0.05606132 0.32580072 -0.15633559 -0.06814785 -0.2245893 0.028671542 -0.018681722 -0.29752457 -0.00030330213 -0.06916614 0.12382052 0.20920692 -0.05319827 0.037896432 -0.09348405 0.09728339 -0.070067085 0.25456974 -0.05550276 -0.22726254 -0.30200708 -0.6025509 -0.010560303 -0.0876453 0.31964755 0.112560116 -0.016163144 -0.18052287 0.31426963 -0.20430435 -0.5099618 0.15996799 0.10527043 0.07537948 0.14882141 -0.14586294 0.061188012 -0.2921782 -0.037446935 0.0042231707 -0.02927806 -0.16944517 -0.4225902 -0.43380964 -0.020573018 -0.13757652 0.20929013 0.16157368 0.10046541 0.12067207 -0.34186468 0.050188977 0.14434126 0.109428555 -0.003311156 0.01095185 -0.0606246 -0.015565177 0.192861 -0.11561802 -0.41972846 -0.15293218 0.21938609 -0.30392414 0.18411146
Melisandre 0.04908691 0.096934 0.23181522 0.034811947 -0.0027947454 0.30760667 0.05578272 0.15216656 0.038992953 -0.001717421 -0.1769702 0.14026733 0.10879288 -0.08524599 -0.110568285 -0.0224179 -0.124064796 0.07966818 -0.17718765 0.10555845 -0.08999332 -0.16417752 0.21130224 -0.10801298 0.05156014 -0.09643211 -0.46040362 -0.28854594 0.12989809 0.046097472 0.10415249 0.2822637 0.07001019 -0.07018711 -0.23084502 -0.19000332 0.08465993 -0.1093565 -0.03657039 -0.08741173 -0.2361507 -0.1806914 0.10011175 0.00019131736 0.248539 -0.079036914 0.27560365 0.0929573 0.047721125 -0.021962825 0.1524073 0.15223564 0.10851532 0.023583034 0.028513102 -0.040560003 -0.09537868 0.278116 0.24100034 -0.02629406 0.22497126 0.09956647 0.39826715 -0.29232112 -0.17871128 -0.04640579 0.119549535 -0.26703867 -0.2132993 0.49532798 -0.08314949 -0.18934108 0.08408778 -0.14943822 -0.03783129 -0.05232493 0.027686689 -0.10037205 -0.20223014 -0.27190176 0.0154344905 -0.18003601 -0.26720276 -0.016935978 -0.16834041 -0.23491836 -0.22019103 -0.0614061 -0.038923632 -0.038210507 -0.09935543 -0.13467088 -0.27725485 0.14973778 0.06593098 -0.18182032 0.12710638 0.13919656 -0.3249882 -0.19682045 -0.14989108 0.15506555 -0.114035584 -0.26133028 0.03570587 -0.0054167095 -0.062835135 0.12561585 0.156658 0.19134083 0.22054859 0.18320881 -0.39326993 0.38583803 0.34437117 -0.3991664 -0.19942158 0.11958402 0.048456937 -0.17297815 -0.094947666 -0.050949518 0.058210228 -0.27541637 -0.17950891 -0.25670853 0.029353375 -0.074351706
Oberyn-Martell -0.064858995 0.08603551 -0.35622796 0.16353196 -0.15212555 -0.106146045 0.22418573 0.063337766 0.05442499 0.063452065 0.13170853 0.28532067 0.10227528 0.32091025 -0.14974578 -0.031940006 -0.18371029 -0.07104846 0.093327 0.0037521636 -0.0607628 -0.006991259 0.31588176 0.056891356 0.28763455 -0.1319932 -0.028311001 -0.2616542 -0.109023936 0.32341364 -0.080922194 0.01493714 -0.0135553535 -0.07645783 0.17652896 -0.014990903 0.3697208 0.115351036 0.20073432 -0.22172798 -0.17397109 -0.34149325 -0.024699818 -0.12795436 -0.15653351 -0.0903924 0.061483406 -0.090977386 -0.28403962 0.08282649 0.17504632 -0.32725945 -0.12489799 0.095699675 -0.1414253 0.28498822 -0.07697403 0.025612708 0.12641725 -0.16268417 0.24237114 0.23025009 -0.042891603 -0.13014571 0.19241813 -0.24641395 0.045351613 -0.112042606 -0.01885446 0.065569095 -0.26731643 -0.00300236 -0.24461235 0.23511413 0.1086936 0.24166052 0.0047272327 -0.28441453 0.12780192 -0.09749349 0.12733987 -0.09875118 -0.13961801 -0.092214085 -0.22760424 0.08854836 0.11673052 0.177009 0.004888885 -0.053146042 0.23498885 -0.076057196 -0.17235574 -0.34059104 0.12991929 0.00755843 -0.0693254 0.22965612 -0.21655867 -0.04393889 -0.04235033 -0.020449946 0.037349626 0.13080788 0.03093406 -0.00944423 -0.4008599 0.29212543 -0.06808999 -0.07199607 0.14400613 0.00915751 0.16954798 -0.17160304 0.020606337 0.11215892 0.34702405 0.018341335 0.43417507 0.16308498 -0.1796358 0.15137544 -0.057177447 -0.08761833 0.043988355 0.110694766 -0.135105 -0.06001678
Olly 0.18269308 -0.09848521 0.2517806 -0.2198989 0.12055009 -0.2199405 0.25092635 0.43154937 -0.33267257 0.17769234 0.05756202 0.33895043 0.3003396 -0.22475472 -0.026713602 -0.12182016 -0.20390368 -0.23175 -0.28152484 0.09916142 -0.14963013 -0.48781377 0.02273029 0.014678928 0.28390235 -0.052568026 -0.36730465 -0.28718814 0.14456393 0.025168017 0.16941805 0.18874179 0.16181871 -0.045872156 -0.23015717 -0.34582233 0.22568384 -0.0046985587 -0.12720567 -0.3222783 -0.29372075 -0.18703765 0.17985609 0.14623055 -0.022841847 -0.11061183 0.10371195 0.30646434 0.21443978 0.09606711 0.45424283 0.09409595 -0.08411394 -0.20888269 -0.19165824 -0.08708575 -0.17059639 0.033990677 0.13381588 -0.22431454 0.20317513 0.1299242 0.40975899 0.09485424 -0.26441744 0.054703407 0.12753588 -0.57903033 0.058639694 0.53944224 -0.0117104435 0.031758238 0.32265124 -0.35425434 0.042326473 0.0303266 -0.20258926 -0.07599567 -0.12617695 0.045720953 -0.05206787 -0.111788385 -0.20042385 -0.19372086 -0.0042772037 -0.15247709 0.003904671 -0.019629892 0.034206882 -0.002710436 0.2344852 -0.038053837 -0.13748989 0.2635993 -0.023559446 -0.07963047 -0.06575191 0.12221166 -0.24174412 0.081705295 -0.16011873 0.2531853 0.026115008 -0.2691841 -0.24349901 -0.023501776 -0.019135347 -0.026475256 -0.04562542 -0.059126377 0.11467279 0.06957452 0.03225513 0.22565457 0.30817035 -0.24380071 -0.1414096 -0.085899025 -0.13293949 -0.32066968 -0.02797847 0.025166688 0.095550135 -0.19113614 0.10560232 -0.056728475 -0.037394114 0.15061885
Ramsay-Snow 0.0026577788 -0.14834858 -0.0371758 0.011854765 0.08841297 -0.114728734 0.0028811598 0.011220997 0.068347484 -0.19758399 0.05111707 0.11730334 -0.028308023 0.0032058323 -0.55507094 -0.028946187 -0.16083774 0.11801135 0.11306706 0.015729396 -0.0057148817 -0.3423235 -0.082721904 0.1489751 -0.4261125 -0.2964317 -0.18268594 0.20359187 0.12577029 0.05509722 -0.22826917 0.1697787 -0.09695355 0.062317457 -0.19413511 -0.3774988 0.34135744 0.2053888 -0.23320301 0.15505672 -0.6094297 0.21890128 -0.23386273 -0.14792909 -0.12245883 -0.043652438 0.19789939 0.31004632 -0.11267362 0.07684027 0.16911879 -0.04836384 0.09121275 -0.51924604 0.29433033 0.12094136 0.011717481 -0.022891771 -0.39359826 -0.0009927753 -0.044353485 -0.103156544 0.33454302 -0.23398782 0.004675685 0.06760365 0.17753898 0.1099001 -0.012717787 0.5566566 0.12445926 0.21769924 -0.025539963 -0.16764568 -0.035149857 0.3792638 -0.16903259 -0.2573046 0.21675141 -0.011697315 -0.21430668 -0.039742205 -0.25319234 -0.3433609 0.0029673064 0.31760928 -0.15376788 -0.13743046 0.16063747 0.06345528 -0.07680315 0.1494494 0.028559437 0.12707984 0.14728796 -0.06046223 0.05263606 -0.16267443 -0.056674495 0.34227315 -0.07880588 0.51930577 -0.10676066 0.06454179 0.24318953 0.19322252 0.18267567 0.20021303 -0.17783712 0.2402288 0.25035414 -0.14030097 -0.16658771 -0.023194088 0.3992202 -0.26034647 0.19334394 0.3555562 -0.20057735 -0.18027712 0.084857814 0.17237265 -0.119329296 -0.0041163513 -0.34351832 -0.058491018 0.31659254 0.2509289
Meryn-Trant -0.06368393 0.10366378 -0.14877689 -0.039335385 0.0047480687 -0.27193788 0.033421293 -0.07750033 0.07383346 0.15583773 0.04929326 -0.17988607 0.09996308 0.091843024 -0.049148638 -0.050494514 -0.045542248 0.025309602 -0.059149213 -0.044409506 -0.1330221 -0.2430192 -0.15999527 0.20500268 -0.23363775 -0.25801033 -0.038992807 -0.05848402 0.06398153 0.11900926 0.20481433 0.12886001 0.30660546 -0.23182836 -0.35559452 0.13620502 -0.044777293 0.0591245 0.1808189 -0.26187605 0.014109342 -0.078757934 -0.13620004 -0.015757652 -0.027322188 -0.008545573 0.19451748 0.1334593 -0.13718733 0.20838454 0.41972208 -0.056546118 -0.22780591 -0.25719497 -0.098821126 0.13468853 -0.42455786 -0.56749856 0.49839354 -0.005911472 0.25062954 0.35720167 0.26066303 -0.101890266 0.23633854 0.02149525 0.25264534 -0.22880368 0.37820584 -0.009366008 -0.22363561 0.12587278 -0.012296611 0.07198485 -0.19386582 0.002802704 0.19940388 -0.05114854 -0.05365289 -0.094736286 0.19110411 -0.18943398 -0.19546555 -0.23299104 -0.025376178 -0.0042371093 -0.28844973 0.013974851 -0.36355674 0.35213777 0.4212111 0.18239242 0.020380953 -0.11434858 0.16417672 0.22904246 -0.30127826 0.119895026 -0.14728993 0.373978 -0.18630642 0.0036441952 0.24108988 0.16466169 0.0059636347 0.07506025 -0.14015739 0.32458287 -0.17135336 0.31656936 -0.036577046 0.32122558 0.17143556 0.05741131 0.13680284 0.107404254 -0.48199967 0.13832447 0.30071393 0.16923061 0.1529219 -0.09524759 0.25100464 0.24450393 -0.3413518 -0.2703279 0.029751906 0.07753616
Stannis-Baratheon -0.02417312 0.059121568 0.23944049 -0.028562313 0.021480514 0.16700855 -0.060186595 -0.03862863 0.10775879 0.05504416 -0.2879292 0.33674324 0.0381447 -0.13595192 -0.10607306 0.20542671 -0.3914763 0.06739357 -0.27280554 -0.12402763 0.024850044 -0.14469552 0.17717186 -0.016997881 0.27205566 -0.28313172 -0.5529813 -0.39517847 0.19943066 -0.1669142 0.16378853 0.44313183 0.09670696 0.047538802 -0.25827298 -0.3567592 0.15829127 0.14431454 -0.17117766 -0.2475858 -0.2829243 -0.2367829 0.12278343 0.14341053 0.23812866 -0.012426754 0.21329634 0.26412094 0.014750182 0.1968207 0.26727995 -0.085884936 0.0025675185 0.0715253 -0.32405856 0.10329257 -0.17522298 0.028407473 0.3843235 0.26882023 0.16445671 0.18134908 0.51215947 -0.49020854 -0.27207404 -0.41891065 0.07498083 -0.30660513 -0.46738374 0.460958 -0.051279046 -0.087271355 0.27598703 -0.40456998 0.09912849 -0.20653822 -0.054032885 -0.23141031 -0.033163033 -0.11083217 0.153026 -0.0024822806 -0.21434656 0.037105598 -0.12908207 -0.30886686 -0.21113639 -0.2519863 0.14830415 0.059263527 0.13035718 -0.024422381 -0.11281635 0.14870994 -0.15452926 -0.100157596 0.119171545 -0.053529024 -0.35928422 -0.16853495 0.013530973 0.33500084 -0.18661317 -0.25882122 0.15632607 0.14119571 -0.22046271 0.05770164 0.087366134 0.17734292 0.33572808 0.29175296 -0.3109267 0.5586601 0.28277394 -0.2979924 -0.094136335 0.023696303 -0.06456039 -0.32627505 -0.18875036 -0.09243303 0.1693168 -0.3957727 -0.0772651 -0.16653433 0.05688395 -0.027549248
Thoros-of-Myr 0.18177827 0.16305265 -0.39664954 0.010947034 0.085427836 -0.098029785 0.049178593 -0.08960276 0.04950164 0.06792647 -0.02214504 0.20979133 -0.17153381 0.06370453 -0.1786476 -0.056815635 0.06371796 0.18642932 -0.18111025 -0.16128445 -0.021500183 -0.10182878 0.0077644396 -0.25267324 -0.17579748 -0.02904195 -0.11612565 -0.23235735 -0.15726347 -0.13756211 0.09286599 0.0973066 -0.17326102 0.06051896 -0.018577809 -0.1895745 0.28273493 -0.20187587 0.11037738 -0.081350915 -0.27853224 -0.22566298 -0.04754609 -0.032199405 0.024140216 0.12558345 0.13183174 0.25039625 0.09090083 0.14671397 0.11021061 0.015158939 0.08788651 -0.2535062 0.2612938 -0.074510865 -0.041295394 0.3097895 0.016774138 0.06569534 0.049991917 0.0052041514 0.38052034 -0.20278455 0.31009623 0.24017775 0.16679569 0.008126266 0.12207719 0.68552685 -0.08604306 -0.4052357 0.06447817 -0.27849722 0.2584505 -0.20026077 0.18100728 -0.22973199 0.12188603 -0.11806239 -0.0035033214 -0.2461475 -0.24368638 0.1367166 0.16112246 -0.16221862 0.07727888 0.1524307 0.25885534 -0.03880514 -0.027464006 -0.04444284 -0.20879653 -0.108445324 0.15563852 -0.07173402 0.16839121 0.13483529 0.12066464 -0.09721098 0.08309242 -0.036544465 0.08082233 0.0718799 -0.17817247 0.11496243 -0.38617703 0.29334474 0.03985746 0.17488092 0.10506221 0.010017942 0.0042306967 0.11590992 -0.04448908 -0.41271856 -0.49001494 -0.14256862 0.06482522 -0.068413615 -0.08959089 0.28194627 0.014362606 -0.11035845 0.19923262 -0.13186638 0.13330252 -0.21277781
Summer 0.27931798 -0.33079886 0.117250256 -0.33034578 0.070331395 0.16619119 0.29809317 0.18297829 -0.13583012 -0.13317794 -0.42320234 0.07623111 -0.19269012 0.25219816 -0.2902192 -0.25856856 -0.08933047 0.16355859 -0.1640334 0.27503994 0.07856862 -0.26816827 -0.08468597 0.20836517 0.10445192 0.025054412 -0.30867064 -0.24976291 0.13304897 -0.07408246 -0.040933516 -0.20985983 0.20380136 -0.33658314 0.0047397157 -0.28019974 0.009623942 0.28510866 0.1718628 0.026834931 -0.19645005 -0.21369672 -0.32123667 -0.20634556 0.31024644 -0.2621096 0.0733246 0.3147378 0.056240384 0.07617699 -0.103376344 -0.21015248 0.3496249 -0.044646345 0.12040488 0.097394474 0.22700243 -0.24728715 0.22061072 -0.022628944 -0.2429251 -0.007013049 0.39035222 -0.2450994 -0.27657402 0.15506203 -0.015500512 -0.050638266 0.13935293 0.16886191 -0.18595962 0.05963304 -0.15709835 -0.21464825 0.2575827 0.2571849 -0.1580602 -0.28626418 0.14185981 -0.1489375 -0.15001726 -0.22581449 -0.26918125 -0.37720886 0.0874107 -0.11901489 0.085626975 -0.07995173 -0.049486425 -0.12694143 0.03436885 -0.1415977 0.13083115 -0.28569353 0.14743248 -0.024952104 -0.19009973 0.2121804 0.010659772 0.03650554 -0.20082256 -0.008896479 0.053170085 0.12196769 0.023138668 -0.0051159374 0.075463414 -0.0027104954 -0.23339061 0.15584037 0.15462595 -0.21841976 -0.16138788 0.051020086 0.344077 -0.21573035 -0.067169115 0.06288846 -0.09811599 -0.07758548 -0.049293745 0.32292902 -0.14281139 0.28056452 0.2389109 0.057438884 -0.19734706 0.12783483
Janos-Slynt 0.11664671 -0.0918259 -0.07906733 -0.06427941 0.08490466 -0.1343991 0.18600921 0.29628664 -0.15000068 0.019502426 0.017084835 0.3036196 0.15893857 -0.32441074 0.018592516 -0.04626581 -0.24700208 -0.01816916 -0.2682506 0.17080703 -0.17011453 -0.54083836 0.09704372 0.18347126 0.25237072 -0.060583077 -0.3823917 0.00966976 -0.1548419 0.06469889 -0.039006155 0.010389481 -0.004034038 -0.045080326 0.08812826 -0.27339983 0.33038306 0.03827132 -0.09570587 -0.44555774 -0.263627 -0.3374233 0.17976746 0.2116123 0.0049625062 -0.005225434 0.03462062 0.30511606 0.41664174 0.0108344 0.39962938 0.3349597 -0.05980854 -0.15179025 -0.17310026 0.08801167 -0.24913825 0.0669049 0.07918954 -0.17507902 0.044609834 0.02684737 0.29462498 -0.28429425 -0.29133672 0.084331006 -0.104846574 -0.43801254 -0.1712673 0.49540097 -0.047368612 -0.03175469 0.11910376 -0.16388538 -0.055743393 0.20144989 -0.28027147 -0.16728808 -0.24305494 0.034891285 -0.176667 -0.3519464 -0.05881972 -0.2326813 0.22779545 -0.1469608 -0.017926231 0.1765706 -0.095017314 -0.23434809 0.34214425 0.03965573 0.119586945 0.24295482 -0.09443244 0.0063973004 -0.17671214 0.1887209 0.052633777 0.090820126 0.12227116 0.09894234 0.10290745 -0.07636426 -0.20213766 0.030037854 0.11588466 -0.01663065 -0.08780538 -0.14636682 -0.07621363 -0.026320815 0.21837905 0.17799881 0.34871194 0.13088562 -0.050747506 -0.19638588 0.08109896 -0.34271193 -0.0033721032 -0.050285257 0.09516667 -0.1719892 0.019659296 -0.10662198 -0.15572336 0.38928688
Jojen-Reed 0.2471858 -0.11380038 0.21882397 -0.46613827 0.18396705 -0.25002456 0.35526395 0.13438736 0.066018656 -0.08737978 -0.3904376 0.09274823 -0.19042994 0.22827655 -0.20653304 -0.41303444 -0.29319125 0.19220807 -0.3130215 0.3665154 -0.047078945 -0.58611894 -0.019607168 0.13645904 0.094829775 -0.049215347 -0.32837966 -0.1308872 0.4002642 -0.06700592 -0.081029326 -0.055253416 0.13576049 -0.27905467 -0.056759696 -0.44670844 -0.18927741 0.36476168 0.17691243 -0.21892552 -0.011206549 -0.06304902 -0.25155333 -0.2180623 0.16191554 -0.17168365 -0.029281376 0.2878172 -0.027631192 0.20078152 -0.2617803 -0.41494885 0.3210988 0.018041946 0.12123081 0.08742766 0.23165415 -0.2654091 0.17625092 0.14532301 -0.23213115 -0.16307344 0.5063189 -0.4152147 -0.28915697 0.106421866 0.086447686 -0.01508371 0.06633494 0.022803688 -0.13178012 0.22458968 -0.104507275 -0.2160117 0.2849377 0.30476972 -0.2806811 -0.32013842 0.27543887 0.011450161 -0.1471828 0.052020244 -0.19269894 -0.5265124 0.01271117 -0.07126477 0.20095167 -0.121413566 0.031337302 -0.089691855 0.09050971 -0.10677158 -0.0031327873 -0.41158462 0.087901846 -0.17798613 -0.26298064 0.22734003 -0.2554686 0.032173924 -0.08769449 0.06876159 0.18858655 0.16324145 -0.13985015 0.025647914 -0.052429017 -0.049910635 -0.1740001 -0.12207992 0.16993392 -0.24192064 -0.3406565 0.11641156 0.31056294 -0.17242093 -0.25554034 -0.05785654 -0.088677555 0.08552791 -0.2935043 0.61083066 -0.02197556 0.29542822 0.16682856 0.20778377 -0.052876458 0.21232432
Rickon-Stark 0.20532513 -0.37074265 0.10343421 -0.22007836 0.016735625 0.022809032 0.13127778 0.16811697 0.029298507 -0.057675287 -0.35381052 0.18415664 -0.06902109 0.31864625 -0.33611706 -0.2951496 -0.22727972 0.10826205 -0.025356615 0.43035474 -8.28343e-05 -0.2816084 -0.032980878 0.015734816 -0.14500299 -0.055006973 -0.26920345 0.008316327 0.31471956 -0.067536384 -0.117230475 0.10656331 0.20822819 -0.0445789 -0.10631306 -0.1505587 -0.030985111 0.11882036 -0.14516933 0.020920647 -0.15783198 -0.14045322 -0.31809184 -0.18444055 0.034130607 -0.19485211 0.08395239 0.04616005 -0.10127286 0.13068414 0.06103508 -0.094236575 0.36677906 -0.11585823 0.35839605 0.09655444 0.1826354 -0.1486744 0.10511736 0.03849367 -0.28262228 -0.092567354 0.5316549 -0.46338263 -0.42723212 0.29943314 -0.00817757 -0.038220767 0.19550312 0.048995066 -0.058125883 0.12831445 0.06431428 -0.27214348 0.13868335 0.21082506 -0.13709718 -0.4584696 0.25137037 -0.044942457 -0.14888188 -0.149297 -0.32560423 -0.37458417 -0.025417501 -0.08549131 0.18090618 -0.14574717 -0.08541082 -0.119361356 0.044045087 0.012138631 0.31480005 -0.17218687 0.21399246 0.0017483458 -0.16645288 0.108761035 0.036527768 0.12801495 -0.09125122 0.22366434 0.21829458 0.21272358 0.009036816 0.07262483 -0.015020487 0.23629045 -0.2615141 0.20278488 0.2429535 -0.16379242 -0.09848768 0.120563805 0.41133124 -0.087030254 -0.15427878 0.08323717 -0.11853973 0.12978077 -0.18656409 0.28960326 -0.004949395 0.47474635 0.034022547 0.11019082 -0.046678286 -0.06548367
Talisa-Maegyr -0.14898483 -0.56473434 0.019590171 -0.45390156 -0.23792824 -0.12942852 -0.08483155 -0.019616513 -0.30692887 -0.25340414 0.3546098 0.23549615 -0.07447215 0.29542992 -0.28497127 -0.17652592 0.27369314 0.0664545 0.49351987 0.028531035 -0.09334401 -0.093081184 0.07364007 0.024707356 -0.085405596 -0.3410237 -0.5194246 -0.19216219 0.026784157 -0.010030964 -0.25637224 0.022481872 -0.026007647 -0.20375088 -0.12538224 -0.080075115 0.032775685 0.35892922 -0.14086652 0.18157808 -0.6127718 -0.10918656 -0.3579964 -0.082432255 -0.25665256 -0.24715684 0.28860462 -0.0015309468 0.21112119 0.2637687 -0.23788139 -0.10262809 0.11010864 -0.13354257 -0.042137988 0.40797698 -0.16407298 -0.046652786 -0.05962292 -0.33794552 0.16234879 -0.24373008 0.2714836 -0.1694599 -0.0842602 0.19932784 -0.33209607 -0.058289323 0.044517472 0.18648158 -0.2022888 0.13326254 -0.63031465 -0.045699097 -0.1832364 0.17851914 -0.33000135 -0.2727923 0.30624503 -0.58776635 -0.041881055 0.13332903 -0.033090446 -0.2550741 -0.25105643 -0.08673932 -0.42326474 -0.48741287 -0.08952661 -0.03938366 -0.03952648 0.10417643 -0.23812239 -0.15813933 0.4842467 0.0051374417 -0.16997783 0.5060473 0.017577253 0.08921155 0.12566043 -0.06786155 -0.075699255 -0.040976126 0.30593497 -0.018971618 -0.021844523 -0.12229819 0.14194962 0.6130396 0.2253836 -0.45115763 -0.09820102 0.3894115 0.12323848 -0.1882477 -0.54068416 0.061877787 0.0007632233 0.00024865338 0.070009425 0.095336966 -0.37971297 0.08033359 -0.3909124 -0.3882211 0.37418306 0.25366578
Osha 0.35534638 -0.25244597 0.23121662 -0.25969246 -0.016151328 -0.05675987 0.30369252 0.15463567 0.15587772 -0.06691965 -0.26687256 0.16942239 -0.22359484 0.35652015 -0.11072582 -0.33073962 -0.149596 0.10733194 -0.090709105 0.5016157 0.052813634 -0.51657957 0.1359607 0.15909265 -0.19964452 -0.22676797 -0.27083433 0.03135597 0.07327521 0.015977232 -0.21724287 -0.073497735 0.34759238 -0.20121717 -0.017789865 -0.19943547 -0.12549728 0.26853973 0.091304615 -0.0075423894 -0.1006593 -0.3752015 -0.28308907 -0.1418427 0.021532571 -0.19411077 0.06880627 0.27314404 -0.04509905 0.33825952 -0.23549275 -0.17045847 0.28522298 -0.15933432 0.48005533 0.012895573 0.2530665 -0.2433413 0.16970494 0.11916385 -0.34200063 -0.008722252 0.4779348 -0.3763895 -0.42396602 0.24044581 0.1269919 0.20597823 0.037393745 0.19452216 -0.24756674 0.23633088 -0.10662812 -0.28095582 0.16925809 0.15042159 -0.15675905 -0.44236416 0.31842545 -0.05938997 -0.1692264 -0.11843162 -0.2607577 -0.5121079 -0.051704276 -0.06270559 0.15693188 -0.17477617 -0.047841053 -0.17060114 -0.19381982 -0.08885771 0.2112575 -0.1834279 0.08347747 -0.30563998 -0.36270168 0.2602761 -0.12366624 0.15318474 -0.14372993 0.17201307 0.096653126 0.18507242 -0.0410032 -0.059615683 0.04650831 7.753898e-05 -0.24457811 0.036717363 0.27223498 -0.012800848 -0.024658766 0.1682482 0.32033646 -0.13252413 -0.025045214 0.10712903 -0.046160985 0.19381689 -0.1418761 0.3530551 -0.07286518 0.5750238 0.076254986 0.17179257 0.03290621 0.039396785
Rodrik-Cassel 0.24010396 -0.51102877 0.08440791 -0.28593764 0.05711221 0.14668988 0.27639878 0.12189294 -0.18630916 0.024556736 0.027004594 0.23251607 0.11111179 0.1587256 -0.43705508 -0.15177336 -0.058813453 -0.047887437 -0.059489768 -0.14806731 0.19069529 -0.112936534 -0.0030333905 -0.093993515 0.10144861 -0.036314774 -0.059006095 -0.14583068 -0.13253972 0.17931388 -0.3445467 -0.020498727 0.117904864 -0.18578783 0.0105733555 -0.01858126 -0.024862684 0.07880939 -0.3513604 0.1123783 -0.40597755 -0.18321645 -0.21180412 -0.12559792 0.055755872 -0.40587515 -0.06382028 0.05467832 -0.024485163 0.024289185 -0.11236782 -0.09963462 0.17116126 -0.23834164 0.07174014 0.1905209 -0.19872172 -0.057719965 0.02976968 0.010273023 -0.33863443 -0.09605811 -0.03039559 -0.4418577 -0.09511137 0.23104905 -0.018081915 0.091140546 -0.10152111 0.23232666 -0.21212894 0.09534775 0.1342948 0.08958595 -0.100691944 0.49289972 -0.30034974 -0.026381334 0.11314023 -0.39553112 -0.016979858 -0.0044811657 -0.029217316 -0.10559803 0.18368362 -0.1306498 -0.11772692 -0.07510889 -0.32999998 -0.23798247 0.014359194 -0.04958342 0.021196209 -0.45972192 0.14706828 -0.089790076 -0.04926995 0.51866597 -0.01952776 0.14769405 0.051709965 -0.064339615 -0.16720837 0.19781151 0.27705935 0.066711895 -0.07019144 -0.10468873 -0.3326463 0.19881062 0.23438095 -0.004078347 -0.21835357 -0.09242753 0.3249828 0.19486202 -0.30665252 0.17105095 -0.11020279 0.09298567 0.098407514 0.1273822 -0.13176702 0.021237755 0.010620632 -0.17581418 -0.06759022 -0.0387803
Roose-Bolton -0.16882409 -0.47772518 0.06815759 -0.24073166 -0.04711131 -0.15214917 -0.313669 -0.1948292 -0.19448613 -0.30851355 0.30418435 0.27327743 -0.07269625 0.18392274 -0.26050496 -0.23613413 -0.025647221 -0.067124605 0.6345519 0.0019415745 -0.047663413 -0.2427609 0.05461601 -0.042668406 -0.0986225 -0.2195299 -0.3119514 0.023976168 -0.0054608174 0.06700146 -0.46313682 0.13719714 -0.2307268 -0.02358242 -0.00032885824 -0.12802155 0.15297401 0.2924395 -0.11770267 0.25098273 -0.73520845 -0.064891346 -0.3333149 -0.048860613 -0.25694185 -0.35472924 0.21442607 0.25043508 -0.085519396 0.09221371 0.100435965 0.018797416 0.045691535 -0.0967019 0.10238207 0.4853847 -0.31641185 -0.38297653 -0.03468435 -0.18394972 0.0177221 0.034143277 0.37454516 -0.1550237 -0.20445743 0.16428396 -0.16299433 0.03693671 -0.1974653 0.35500136 -0.07350619 0.16014428 -0.42621598 -0.21432911 -0.13296986 0.21611375 -0.2630686 -0.40313074 0.4247597 -0.18944114 -0.2614176 0.14946295 -0.10945474 -0.09167707 -0.17660685 0.0057395864 -0.20644946 -0.47164145 0.02621536 0.079295896 -0.079938225 -0.017284397 -0.0547753 0.06347165 0.3073985 -0.21242172 -0.17432582 0.3042341 0.18778557 0.2737278 0.29053515 0.06269277 -0.15358223 0.011799016 0.27754608 0.13135776 0.2958954 -0.086400665 -0.05123777 0.47880143 0.15584652 0.05176079 -0.107726246 0.18157648 0.11251717 -0.1371707 -0.23588581 0.3052163 -0.021181678 -0.0516436 0.11643421 0.24770081 -0.06876723 0.02234697 -0.31963265 0.04619613 0.42194006 0.3024933
